<?xml version="1.0"?>
 <opencv_storage>
  <opencv_ml_svm>
   <svmType>C_SVC</svmType>
   <kernel>
     <type>LINEAR</type></kernel>
   <C>1.</C>
   <term_criteria><iterations>100</iterations></term_criteria>
   <var_count>128</var_count>
   <class_count>2</class_count>
   <class_labels type_id="opencv-matrix">
     <rows>2</rows>
     <cols>1</cols>
     <dt>i</dt>
     <data>
       -1 1</data></class_labels>
   <sv_total>1</sv_total>
   <support_vectors>
     <_>
-0.024173472
-0.173697710
-0.159743130
-0.602344215
-0.615003467
-0.674441695
-0.798399091
-1.086360574
-1.070068359
-1.154853702
-1.301514030
-1.323872685
-1.173437357
-1.171035528
-1.287674069
-1.151235104
-1.019888520
-0.869454861
-0.687874198
-0.596894741
-0.406518042
-0.196115837
0.068930417
0.140982062
0.332571805
0.580279887
0.523975194
0.490857124
0.356210321
0.378856122
0.418726683
0.392334670
0.445742518
0.672455013
0.843462825
1.015021443
1.068402290
1.039597154
1.248372912
1.402116656
1.284078121
0.966040671
0.600244105
0.355511993
0.033823676
-0.220611319
-0.187639102
0.144665644
0.263808191
0.359210491
0.710133135
0.859879017
0.965710878
1.107829690
1.183866024
1.080038548
1.106326342
1.125795364
1.047734976
0.866485357
0.734014034
0.698037922
0.643274844
0.456437498
0.095942363
0.111040682
-0.190682933
-0.449391991
-0.508685589
-0.761976600
-0.991264343
-1.060537338
-1.094016314
-1.235543847
-1.165173054
-1.440512657
-1.707115293
-1.574109674
-1.281152725
-1.176053524
-0.982023180
-0.710450709
-0.315021098
0.291853547
0.753499091
1.141056180
1.247535825
1.286204457
1.583730102
1.353222013
0.885789454
0.852998674
0.358189225
-0.106226832
-0.178865194
-0.148018956
-0.230711028
-0.122128576
-0.291863918
-0.098350383
-0.090133771
-0.318440109
-0.432281196
-0.371185184
-0.517025948
-0.875247896
-0.732596397
-0.589596808
-0.293264538
-0.706601918
-0.004609304
-0.123880021
0.311483622
0.514222085
0.168788061
0.172177389
0.532063663
0.175917670
0.365564376
0.087915897
0.551547945
0.289006680
0.419222564
0.304174125
0.531466186
0.200853869
-0.210465819
0.232684240
</_></support_vectors> 
   <uncompressed_sv_total>0</uncompressed_sv_total> 
   <decision_functions> 
     <_> 
       <sv_count>1</sv_count> 
       <rho> 0.596997201
</rho>  
       <alpha>  
         1.</alpha>  
       <index>  
         0</index></_></decision_functions></opencv_ml_svm>  
 </opencv_storage>  
