<?xml version="1.0"?>
 <opencv_storage>
  <opencv_ml_svm>
   <svmType>C_SVC</svmType>
   <kernel>
     <type>LINEAR</type></kernel>
   <C>1.</C>
   <term_criteria><iterations>100</iterations></term_criteria>
   <var_count>128</var_count>
   <class_count>2</class_count>
   <class_labels type_id="opencv-matrix">
     <rows>2</rows>
     <cols>1</cols>
     <dt>i</dt>
     <data>
       -1 1</data></class_labels>
   <sv_total>1</sv_total>
   <support_vectors>
     <_>
-0.010170969
0.000612305
-0.100878984
-0.267479450
-0.323196620
-0.275405377
-0.290382892
-0.347397685
-0.313952804
-0.373577803
-0.302354097
-0.280119956
-0.199930653
-0.141369209
-0.208006501
-0.268465370
-0.306297213
-0.362407029
-0.340800047
-0.232120097
-0.307601631
-0.312891096
-0.207134321
-0.262745917
-0.280324966
-0.253335088
-0.257786900
-0.203415588
-0.228943124
-0.299033910
-0.326012135
-0.423220128
-0.416922390
-0.364326984
-0.347294599
-0.411227375
-0.386828423
-0.447967321
-0.428108424
-0.491711050
-0.559410214
-0.565146267
-0.573340654
-0.483242899
-0.431768000
-0.297358692
-0.257642329
-0.204853281
-0.120691963
-0.138070464
-0.011976902
0.052949909
-0.032376189
-0.044349466
0.056556351
0.077879682
0.119782180
0.089459978
0.010335048
0.115307786
0.173672169
0.246950939
0.206618741
0.232218027
0.169884562
0.254485369
0.302558005
0.325502217
0.319562763
0.391233027
0.346063316
0.289231509
0.168417051
0.247755945
0.220701545
0.204397425
0.267208785
0.347326547
0.186305836
0.132331759
0.156902432
0.111918442
0.091752388
0.002853623
0.096562758
0.032093279
0.046121232
0.090389572
0.085040301
0.028782187
0.060518265
0.042166594
0.126980975
0.121516302
0.038157936
-0.064633414
0.089237347
0.080622897
0.072397076
0.008238540
0.078486472
0.187022448
-0.089792065
-0.154798806
0.204780057
0.213109955
-0.018606218
0.069592617
0.251034051
0.146826506
0.135153100
0.197421566
0.138041645
0.018220138
0.061962165
0.387877762
0.138128296
-0.100300677
0.280044407
0.017129140
0.039109252
-0.026037084
0.434445024
0.218803599
0.365339994
0.809421301
0.793880641
0.680157065
</_></support_vectors> 
   <uncompressed_sv_total>0</uncompressed_sv_total> 
   <decision_functions> 
     <_> 
       <sv_count>1</sv_count> 
       <rho> 7.514366150
</rho>  
       <alpha>  
         1.</alpha>  
       <index>  
         0</index></_></decision_functions></opencv_ml_svm>  
 </opencv_storage>  
