<?xml version="1.0"?>
 <opencv_storage>
  <opencv_ml_svm>
   <svmType>C_SVC</svmType>
   <kernel>
     <type>LINEAR</type></kernel>
   <C>1.</C>
   <term_criteria><iterations>100</iterations></term_criteria>
   <var_count>128</var_count>
   <class_count>2</class_count>
   <class_labels type_id="opencv-matrix">
     <rows>2</rows>
     <cols>1</cols>
     <dt>i</dt>
     <data>
       -1 1</data></class_labels>
   <sv_total>1</sv_total>
   <support_vectors>
     <_>
0.503265798
0.803271592
0.589731157
0.394738376
0.082859881
-0.067250654
-0.815477312
-0.835097492
-1.131844759
-1.591621757
-1.495633006
-1.649687290
-1.746128201
-1.767015934
-1.773703933
-1.754190803
-1.883492470
-1.759747148
-1.705879450
-1.488788128
-1.061700463
-0.699654400
-0.008262231
0.387365609
0.649949849
0.756728351
0.856594682
0.926826239
0.762930393
0.484165460
0.260150194
-0.017004829
-0.033110365
0.358656824
0.503572345
0.926430702
1.062885165
0.941400588
0.660091400
0.042397726
-0.766762495
-1.852850556
-2.729404211
-3.223669529
-3.396749020
-3.210187912
-2.629092932
-2.170604467
-1.388912678
-0.534063935
0.151597947
0.875089407
1.224728942
2.078707218
2.295714855
2.239025593
2.258520842
2.168931961
1.970255733
1.463659286
1.079616785
0.799501777
0.874810994
0.541567266
0.519465148
0.585956216
0.249372125
0.189065233
0.142660990
-0.051829647
0.132923782
-0.106832772
-0.383269399
-0.596999586
-0.670389533
-0.883539021
-1.319335938
-0.959395945
-1.111702561
-0.924018085
-0.992279470
-0.581373870
-0.008891808
0.543888152
1.314357400
1.729916811
1.560763359
1.745134592
1.994431615
1.862904906
1.594114423
1.166873336
1.142679453
0.536992490
0.172203526
0.272486299
0.105730072
0.173041597
0.051219594
-0.332629323
-0.417781234
-0.510633826
-0.730491281
-0.688881874
-1.072668314
-1.265775204
-1.609734774
-1.238903403
-1.305374146
-1.058941960
-0.668532252
-0.484983236
-0.639773488
-0.206929564
-0.356349558
0.343895286
0.387439787
0.376250774
0.674189329
0.304257423
0.784180999
0.199427769
-0.045484886
-0.047958732
-0.109213680
0.425429881
-0.058979698
0.384181470
</_></support_vectors> 
   <uncompressed_sv_total>0</uncompressed_sv_total> 
   <decision_functions> 
     <_> 
       <sv_count>1</sv_count> 
       <rho> 2.597470760
</rho>  
       <alpha>  
         1.</alpha>  
       <index>  
         0</index></_></decision_functions></opencv_ml_svm>  
 </opencv_storage>  
