<?xml version="1.0"?>
 <opencv_storage>
  <opencv_ml_svm>
   <svmType>C_SVC</svmType>
   <kernel>
     <type>LINEAR</type></kernel>
   <C>1.</C>
   <term_criteria><iterations>100</iterations></term_criteria>
   <var_count>128</var_count>
   <class_count>2</class_count>
   <class_labels type_id="opencv-matrix">
     <rows>2</rows>
     <cols>1</cols>
     <dt>i</dt>
     <data>
       -1 1</data></class_labels>
   <sv_total>1</sv_total>
   <support_vectors>
     <_>
0.344853878
0.243625194
0.343097389
0.367209285
0.357627630
0.298779964
0.240555018
0.453528523
0.250101507
0.201231107
0.223890379
0.137635231
0.083276257
0.007681608
0.119469114
0.126726419
0.144851118
0.190023258
0.228637442
0.102304325
0.240485325
0.281964689
0.255198359
0.346237779
0.468039185
0.431544542
0.468394369
0.375656605
0.450308383
0.442758501
0.468017340
0.504780412
0.538347721
0.489939511
0.484277576
0.529300094
0.547973752
0.551922858
0.491727948
0.463026047
0.414589494
0.368441850
0.286406547
0.194550946
0.144094944
0.010881111
0.055280283
0.049893729
0.125564396
0.123849146
0.066012152
0.092669487
0.245507732
0.317108750
0.280657887
0.244394407
0.226502836
0.227435336
0.265457004
0.158423305
-0.009513215
-0.029446483
-0.034480963
-0.114980884
-0.090359688
-0.124331892
-0.225419953
-0.268026471
-0.398875207
-0.450583428
-0.392050177
-0.462578923
-0.455763906
-0.526910663
-0.517534494
-0.504919350
-0.590386748
-0.659404278
-0.517238975
-0.436971515
-0.462730348
-0.311034292
-0.113891736
0.080822147
0.153513134
0.303024024
0.311058193
0.291039437
0.294859231
0.400897622
0.153808981
0.074805573
-0.039256919
-0.146807060
-0.088092119
-0.008656415
-0.142827645
-0.067065082
-0.222746924
-0.165293962
-0.176078603
-0.230969027
-0.163082674
0.037905231
-0.413924336
-0.507702231
-0.092596084
-0.320392013
-0.360181332
-0.285201967
-0.203898177
-0.110501461
-0.176096648
-0.061589535
-0.318875819
-0.395344168
-0.198917523
-0.058335129
-0.253326923
-0.022171309
-0.036412071
0.159350187
-0.428697824
-0.398774922
-0.109058075
-0.834763944
-0.863286078
-0.695146680
</_></support_vectors> 
   <uncompressed_sv_total>0</uncompressed_sv_total> 
   <decision_functions> 
     <_> 
       <sv_count>1</sv_count> 
       <rho> -8.482576370
</rho>  
       <alpha>  
         1.</alpha>  
       <index>  
         0</index></_></decision_functions></opencv_ml_svm>  
 </opencv_storage>  
