<?xml version="1.0"?>
 <opencv_storage>
  <opencv_ml_svm>
   <svmType>C_SVC</svmType>
   <kernel>
     <type>LINEAR</type></kernel>
   <C>1.</C>
   <term_criteria><iterations>100</iterations></term_criteria>
   <var_count>128</var_count>
   <class_count>2</class_count>
   <class_labels type_id="opencv-matrix">
     <rows>2</rows>
     <cols>1</cols>
     <dt>i</dt>
     <data>
       -1 1</data></class_labels>
   <sv_total>1</sv_total>
   <support_vectors>
     <_>
-0.278224289
-0.243012130
-0.511761308
-0.547914505
-0.458014369
-0.549007475
-0.451330423
-0.632518291
-0.582061410
-0.505071461
-0.492386281
-0.537325025
-0.445561886
-0.244509876
-0.278027207
-0.353938639
-0.379692435
-0.406287163
-0.310839742
-0.193173781
-0.323788315
-0.344475359
-0.363913119
-0.339804083
-0.418040872
-0.370374620
-0.371971905
-0.397923559
-0.482542247
-0.506193340
-0.567148209
-0.571320415
-0.565998673
-0.554977477
-0.536902964
-0.600213230
-0.547997773
-0.529310822
-0.445261836
-0.347855091
-0.266266942
-0.263765574
-0.174618810
-0.155799046
-0.137219742
0.110048629
0.069397293
0.210482404
0.189010322
0.184980392
0.280645609
0.340417027
0.267865837
0.249331072
0.328076661
0.331754357
0.300245345
0.238689229
0.157172233
0.205517933
0.357763886
0.250141978
0.246738985
0.261583030
0.174571410
0.269908428
0.293020874
0.320370108
0.300576448
0.296226859
0.254023075
0.097297855
0.081763536
0.125935122
0.015933877
0.011595335
0.070979238
0.122136086
0.006761731
-0.142999426
0.114711143
0.095201448
-0.095502488
-0.142071724
-0.025030997
-0.002818204
0.120509528
-0.025126722
0.117487915
0.011685771
0.129735768
0.167910606
0.101312421
0.123617031
0.190281719
-0.014631025
0.254512221
0.263046265
0.166202426
0.040746979
0.115854897
0.213620037
0.009053773
0.051391434
0.239596948
0.274985671
0.040492903
0.309127867
0.262914181
0.459960818
0.174064666
0.085813954
0.320199251
0.056624886
0.559332669
0.555824697
-0.042076688
0.235854238
0.354925305
0.452811748
0.378602087
0.263212830
0.748087049
0.358315349
-0.018055707
0.530976057
0.863330603
1.668715954
</_></support_vectors> 
   <uncompressed_sv_total>0</uncompressed_sv_total> 
   <decision_functions> 
     <_> 
       <sv_count>1</sv_count> 
       <rho> 10.963225365
</rho>  
       <alpha>  
         1.</alpha>  
       <index>  
         0</index></_></decision_functions></opencv_ml_svm>  
 </opencv_storage>  
