<?xml version="1.0"?>
 <opencv_storage>
  <opencv_ml_svm>
   <svmType>C_SVC</svmType>
   <kernel>
     <type>LINEAR</type></kernel>
   <C>1.</C>
   <term_criteria><iterations>100</iterations></term_criteria>
   <var_count>128</var_count>
   <class_count>2</class_count>
   <class_labels type_id="opencv-matrix">
     <rows>2</rows>
     <cols>1</cols>
     <dt>i</dt>
     <data>
       -1 1</data></class_labels>
   <sv_total>1</sv_total>
   <support_vectors>
     <_>
0.069068521
0.314951062
0.133681536
0.235389739
0.332540333
0.439470947
0.215790808
0.239676133
-0.097603001
-0.330721855
-0.142419890
-0.197165057
-0.283617795
-0.382591158
-0.256410331
-0.656080604
-0.949465036
-0.946810246
-1.125683188
-1.169393182
-1.057208419
-1.072668433
-1.047437906
-0.881086528
-0.803856671
-0.841848254
-0.824559987
-0.773999572
-0.803534269
-1.027946830
-1.172806501
-1.449176431
-1.624787927
-1.665066838
-1.825928330
-1.707760930
-1.813966751
-2.061589956
-2.559403181
-3.045251131
-3.468419552
-3.206909418
-2.813764334
-2.368089437
-1.849663615
-1.209266782
-0.939302981
-0.943725586
-0.735494435
-0.576454818
-0.457039326
-0.406674594
-0.459997088
-0.301221162
-0.210827842
-0.176406384
-0.193605870
-0.176683009
-0.245813444
-0.286985129
-0.212396771
-0.143334866
-0.255459905
-0.104245439
0.004999747
0.117118165
0.314468652
0.384097099
0.152508005
0.435677439
0.634339452
0.541452467
0.673663855
0.646968424
0.549124837
0.597348928
0.563885212
0.703106880
0.544071734
0.601239681
0.316711962
0.121417835
0.172461122
-0.278952062
-0.281388342
-0.381299108
-0.240539029
-0.107997887
-0.399844974
-0.244617343
-0.091239206
0.015451718
0.175308272
0.418465465
0.338748246
0.546978831
0.629855216
0.465988815
0.314987630
0.397537768
0.579808474
0.517242193
0.377359241
0.224346623
0.261821628
0.234140754
0.550906837
0.680468559
0.241187513
0.344076127
0.435973912
0.397999376
0.242646188
0.109668061
0.296363354
0.680113673
0.151337981
0.153903052
0.662798643
-0.051979180
0.298634827
-0.067704462
-0.002192604
-0.194949374
-0.343941629
0.025443817
0.318090707
0.823930025
</_></support_vectors> 
   <uncompressed_sv_total>0</uncompressed_sv_total> 
   <decision_functions> 
     <_> 
       <sv_count>1</sv_count> 
       <rho> 6.736229897
</rho>  
       <alpha>  
         1.</alpha>  
       <index>  
         0</index></_></decision_functions></opencv_ml_svm>  
 </opencv_storage>  
