<?xml version="1.0"?>
 <opencv_storage>
  <opencv_ml_svm>
   <svmType>C_SVC</svmType>
   <kernel>
     <type>LINEAR</type></kernel>
   <C>1.</C>
   <term_criteria><iterations>100</iterations></term_criteria>
   <var_count>128</var_count>
   <class_count>2</class_count>
   <class_labels type_id="opencv-matrix">
     <rows>2</rows>
     <cols>1</cols>
     <dt>i</dt>
     <data>
       -1 1</data></class_labels>
   <sv_total>1</sv_total>
   <support_vectors>
     <_>
0.676222920
0.749960303
0.823659301
0.770931125
0.832928061
0.793820739
0.832710147
0.879320323
0.895007193
0.869205832
0.789949775
0.734817863
0.555811465
0.393817782
0.276755661
0.101996161
-0.026765693
-0.160217628
-0.245467678
-0.379630387
-0.500206172
-0.538740158
-0.579159856
-0.588459313
-0.546838701
-0.508200467
-0.528072894
-0.559219420
-0.664309502
-0.721161246
-0.782885373
-0.868036091
-0.862983227
-0.763393164
-0.624340892
-0.553357005
-0.578368902
-0.638305604
-0.809489608
-0.951793671
-1.065409422
-1.027950287
-0.928187549
-0.836271465
-0.682860136
-0.513591111
-0.334805220
-0.127193868
0.005425015
0.192688391
0.377515674
0.482500970
0.538367867
0.525668442
0.392439216
0.281846493
0.207391515
0.159340411
0.102583371
0.054310035
-0.002558436
-0.043708432
-0.109141000
-0.109312341
-0.111526579
-0.117736682
-0.137305573
-0.204662889
-0.233518839
-0.298983157
-0.255150825
-0.342134506
-0.356552839
-0.266771674
-0.410773873
-0.402744442
-0.399193704
-0.446422368
-0.464671075
-0.376980633
-0.308522880
-0.300142676
-0.262357801
-0.247104704
-0.106408082
-0.047861557
-0.056050181
-0.043978225
-0.175623059
-0.173113182
-0.228696033
-0.282817036
-0.312784135
-0.404622883
-0.423634678
-0.352415293
-0.276603967
-0.326809257
-0.500498414
-0.448524684
-0.414040327
-0.407662064
-0.363187999
-0.347374350
-0.260669500
-0.295438200
-0.258487254
-0.241768867
-0.269765466
-0.219556987
-0.394140303
-0.217696488
-0.151589334
-0.117600799
-0.221771538
-0.011410680
-0.149942353
-0.079391330
-0.094832711
-0.039905366
-0.103730656
-0.047441829
-0.002056424
-0.059100263
-0.043614760
0.167206511
0.099304445
0.108579390
</_></support_vectors> 
   <uncompressed_sv_total>0</uncompressed_sv_total> 
   <decision_functions> 
     <_> 
       <sv_count>1</sv_count> 
       <rho> -11.088556290
</rho>  
       <alpha>  
         1.</alpha>  
       <index>  
         0</index></_></decision_functions></opencv_ml_svm>  
 </opencv_storage>  
