<?xml version="1.0"?>
 <opencv_storage>
  <opencv_ml_svm>
   <svmType>C_SVC</svmType>
   <kernel>
     <type>LINEAR</type></kernel>
   <C>1.</C>
   <term_criteria><iterations>100</iterations></term_criteria>
   <var_count>128</var_count>
   <class_count>2</class_count>
   <class_labels type_id="opencv-matrix">
     <rows>2</rows>
     <cols>1</cols>
     <dt>i</dt>
     <data>
       -1 1</data></class_labels>
   <sv_total>1</sv_total>
   <support_vectors>
     <_>
3.285596132
2.558021784
1.729124427
1.289364457
0.610941172
-0.097682141
-0.600012779
-0.998886883
-1.463978291
-1.596898198
-1.581201077
-1.695057750
-1.749145865
-1.792664409
-1.672530174
-1.342135668
-1.046654105
-0.564219534
-0.282780170
-0.276328176
-0.356115758
-0.347641379
-0.297182530
-0.275500655
-0.285050035
-0.133611038
-0.000553939
-0.080991410
-0.169873983
-0.131973326
0.177398011
0.258776814
0.186635137
-0.019493280
-0.205908671
0.151207477
0.211292684
-0.080582559
-0.256355107
0.216041178
1.199074984
2.207562208
2.728013039
2.794738054
2.739025831
2.257166386
1.626733422
0.674642444
0.045630042
-0.489904881
-0.749429941
-1.166325569
-1.388477206
-1.120883465
-0.792336106
-0.468084246
-0.296095192
0.014581230
0.210032657
0.313941330
0.377265930
0.341713846
0.141157836
-0.060511697
-0.284572035
-0.524155736
-0.885058880
-1.016889334
-1.278959513
-1.419627786
-1.325201869
-1.490316153
-1.537835836
-1.395082593
-1.521100283
-1.734742999
-1.579702020
-1.624514699
-1.577541471
-1.289818645
-1.495405555
-1.156630397
-0.934922516
-0.723909080
-0.555381060
-0.462960362
-0.397363186
-0.216978833
-0.375621945
-0.235177964
-0.238828048
-0.367792159
-0.285424441
-0.311519504
-0.216611534
-0.302724451
-0.095256045
-0.115599386
0.076753691
-0.003920037
-0.186145559
0.122075021
0.105262011
0.061608065
0.064994022
0.182154477
-0.098762594
0.126061156
0.265752941
0.356301159
0.549428165
0.300955266
0.396472603
0.601398289
0.628259182
0.873696566
0.428540319
0.400902927
0.307166159
0.601330817
0.809021294
0.645102859
1.179442525
1.372035265
1.135292530
1.021073937
0.892106950
0.809119999
</_></support_vectors> 
   <uncompressed_sv_total>0</uncompressed_sv_total> 
   <decision_functions> 
     <_> 
       <sv_count>1</sv_count> 
       <rho> -16.411827087
</rho>  
       <alpha>  
         1.</alpha>  
       <index>  
         0</index></_></decision_functions></opencv_ml_svm>  
 </opencv_storage>  
