<?xml version="1.0"?>
 <opencv_storage>
  <opencv_ml_svm>
   <svmType>C_SVC</svmType>
   <kernel>
     <type>LINEAR</type></kernel>
   <C>1.</C>
   <term_criteria><iterations>100</iterations></term_criteria>
   <var_count>128</var_count>
   <class_count>2</class_count>
   <class_labels type_id="opencv-matrix">
     <rows>2</rows>
     <cols>1</cols>
     <dt>i</dt>
     <data>
       -1 1</data></class_labels>
   <sv_total>1</sv_total>
   <support_vectors>
     <_>
0.779992998
0.648138463
0.365391940
0.189573586
-0.059703719
-0.154463768
-0.247568637
-0.356550604
-0.495502502
-0.541199446
-0.535232842
-0.491899341
-0.443684161
-0.317835003
-0.182874307
-0.015863810
0.068942167
0.187501311
0.327408552
0.437532932
0.403195471
0.359091163
0.255951703
0.134522736
0.040838674
0.032717340
-0.023374509
0.095754333
0.228486314
0.393346906
0.477740288
0.424920082
0.313794583
0.012571573
-0.272552341
-0.445002496
-0.542118669
-0.468390465
-0.277692616
0.127284899
0.535372615
0.901859283
1.096753597
1.098104596
0.889711916
0.630045712
0.285123229
-0.142360598
-0.457230389
-0.713537097
-0.794891894
-0.793615818
-0.721734762
-0.685919166
-0.565299690
-0.337493747
-0.256993026
-0.011906410
0.020586604
0.051428497
0.105168894
0.033260368
-0.102736488
-0.208920434
-0.359239757
-0.439494431
-0.500111520
-0.524880290
-0.517819643
-0.692349851
-0.692275524
-0.770028770
-0.755997956
-0.778513432
-0.772530615
-0.766863525
-0.809946835
-0.874422014
-0.890494227
-0.846392572
-0.779179573
-0.798034906
-0.793734729
-0.749072373
-0.783599138
-0.710066020
-0.606937587
-0.595873952
-0.610691428
-0.525240839
-0.526638269
-0.508203149
-0.407965779
-0.358347923
-0.331992805
-0.399579138
-0.277188748
-0.224444613
-0.113317363
-0.226266071
-0.179019943
-0.102411941
-0.040096376
-0.002779355
-0.006347612
0.138574108
0.145384744
0.232841104
0.270184398
0.259560794
0.155153498
0.286926478
0.354438812
0.315430284
0.327445567
0.425125420
0.476039380
0.430794895
0.582394361
0.616384089
0.598703742
0.694128275
0.851979494
0.671561956
0.714406431
0.772739172
0.720175207
0.813131690
</_></support_vectors> 
   <uncompressed_sv_total>0</uncompressed_sv_total> 
   <decision_functions> 
     <_> 
       <sv_count>1</sv_count> 
       <rho> -15.323493958
</rho>  
       <alpha>  
         1.</alpha>  
       <index>  
         0</index></_></decision_functions></opencv_ml_svm>  
 </opencv_storage>  
