<?xml version="1.0"?>
 <opencv_storage>
  <opencv_ml_svm>
   <svmType>C_SVC</svmType>
   <kernel>
     <type>LINEAR</type></kernel>
   <C>1.</C>
   <term_criteria><iterations>100</iterations></term_criteria>
   <var_count>128</var_count>
   <class_count>2</class_count>
   <class_labels type_id="opencv-matrix">
     <rows>2</rows>
     <cols>1</cols>
     <dt>i</dt>
     <data>
       -1 1</data></class_labels>
   <sv_total>1</sv_total>
   <support_vectors>
     <_>
2.130023479
1.753078222
1.478150129
1.246514678
0.998652697
0.852783144
0.799172640
0.820061505
0.675544202
0.520644426
0.343856633
0.374190181
0.417516649
0.449147791
0.622168243
0.594789863
0.521179199
0.323279500
0.355582446
0.422315300
0.357087910
0.316259593
0.020955121
-0.218119085
-0.468369931
-0.596386731
-0.701776743
-0.491814107
-0.091291867
0.299464613
0.331700206
0.220933199
0.010637394
-0.479542822
-1.035035729
-1.564577937
-1.693979144
-1.636063099
-1.291960478
-0.817685485
-0.414293855
-0.074542500
0.121944100
0.250300646
0.164651334
-0.130641446
-0.418274283
-0.620676875
-0.674332619
-0.571901917
-0.392439097
-0.124956064
0.026294287
0.234518468
0.351623267
0.426337123
0.437772632
0.287457049
0.214796588
-0.115683042
-0.221525520
-0.243661121
-0.335705280
-0.342744082
-0.403463215
-0.517933309
-0.400867730
-0.346729755
-0.293357819
-0.312063634
-0.440692365
-0.488957077
-0.535458684
-0.593632460
-0.607615292
-0.509589791
-0.438112408
-0.373041004
-0.338594466
-0.383514076
-0.517931044
-0.634057462
-0.694072902
-0.761403918
-0.871480644
-0.954058290
-0.834830463
-0.962481499
-0.977482975
-0.944688857
-0.893445492
-0.817566574
-0.695230067
-0.571216881
-0.337451428
-0.170060381
-0.013432482
-0.014348384
-0.024289979
0.022041466
0.279725462
0.240859464
0.215855092
0.312625378
0.323738247
0.463723600
0.640422702
0.597483635
0.627878785
0.771248579
0.673093319
0.524257660
0.694409788
0.777451336
1.002265453
1.174322605
1.004605651
0.922973812
0.887002647
1.008083224
1.042164683
1.398549318
1.294039726
1.190101504
1.295403719
1.629145622
1.568590403
1.598469734
</_></support_vectors> 
   <uncompressed_sv_total>0</uncompressed_sv_total> 
   <decision_functions> 
     <_> 
       <sv_count>1</sv_count> 
       <rho> -9.172887802
</rho>  
       <alpha>  
         1.</alpha>  
       <index>  
         0</index></_></decision_functions></opencv_ml_svm>  
 </opencv_storage>  
