<?xml version="1.0"?>
 <opencv_storage>
  <opencv_ml_svm>
   <svmType>C_SVC</svmType>
   <kernel>
     <type>LINEAR</type></kernel>
   <C>1.</C>
   <term_criteria><iterations>100</iterations></term_criteria>
   <var_count>128</var_count>
   <class_count>2</class_count>
   <class_labels type_id="opencv-matrix">
     <rows>2</rows>
     <cols>1</cols>
     <dt>i</dt>
     <data>
       -1 1</data></class_labels>
   <sv_total>1</sv_total>
   <support_vectors>
     <_>
1.142242193
0.452525944
-0.266719103
-0.315039635
-0.485717773
-0.440648496
-0.584705830
-0.577778935
-0.603247762
-0.421551198
0.176813200
0.174951881
0.060717992
0.107311204
0.290385693
0.741151631
1.323175788
2.172243357
2.644617796
2.750826836
2.489579678
1.867532134
1.241091847
0.840091825
0.576858878
0.618697464
0.747232258
0.705070674
0.660962999
0.667575717
0.300133407
0.126759246
0.122838840
0.142260686
0.303574741
0.517200112
0.592441142
0.277574539
-0.231116429
-0.672646821
-0.820352554
-0.695670605
-0.245988652
0.461022615
1.102511644
1.419314742
1.514297009
1.357055187
0.895688832
0.752112448
0.179666340
0.014512852
-0.253044844
-0.510847926
-0.607184649
-0.322081029
0.049266651
0.460950196
1.111648202
1.468142033
1.325581312
0.742786169
0.203945592
-0.349205792
-0.893148363
-1.406394362
-1.676437974
-2.026456356
-1.798884392
-1.772694826
-1.491826534
-1.513949156
-1.116534352
-1.485940456
-1.949430585
-2.122384310
-2.653213263
-3.127958536
-3.547312498
-3.573219061
-3.362896204
-2.587606192
-2.319887400
-1.941424251
-1.083074927
-0.728477955
-0.127374217
0.164955020
0.333133310
0.361423224
0.569957137
0.487471491
0.029141100
-0.598290503
-0.358397514
-0.696384847
-0.453959525
-0.395017236
-0.445051521
-0.959410369
-0.693243623
-0.568239331
-0.611727059
-0.615372181
-0.371778548
-0.087515049
0.048340984
0.961883903
0.905799329
0.744666159
0.227432147
0.491431534
1.075715542
1.297532558
0.985150218
0.266810000
1.155768633
0.948731065
1.059936404
1.255032301
1.116911173
1.542044640
2.152365208
1.743888378
1.887098074
1.298803806
1.726643920
2.502822161
</_></support_vectors> 
   <uncompressed_sv_total>0</uncompressed_sv_total> 
   <decision_functions> 
     <_> 
       <sv_count>1</sv_count> 
       <rho> -19.830615997
</rho>  
       <alpha>  
         1.</alpha>  
       <index>  
         0</index></_></decision_functions></opencv_ml_svm>  
 </opencv_storage>  
