<?xml version="1.0"?>
 <opencv_storage>
  <opencv_ml_svm>
   <svmType>C_SVC</svmType>
   <kernel>
     <type>LINEAR</type></kernel>
   <C>1.</C>
   <term_criteria><iterations>100</iterations></term_criteria>
   <var_count>128</var_count>
   <class_count>2</class_count>
   <class_labels type_id="opencv-matrix">
     <rows>2</rows>
     <cols>1</cols>
     <dt>i</dt>
     <data>
       -1 1</data></class_labels>
   <sv_total>1</sv_total>
   <support_vectors>
     <_>
-0.007873809
0.051595114
0.122990839
0.168526366
0.210392103
0.270361632
0.300888479
0.333105236
0.347547472
0.375233650
0.363423496
0.334469974
0.308575690
0.236906782
0.221841857
0.162777185
0.127044842
0.090288185
0.055994377
0.008669086
-0.028905209
-0.063594706
-0.105037086
-0.126226410
-0.109330282
-0.093260348
-0.089618519
-0.094744049
-0.131614670
-0.166244000
-0.168370858
-0.149809211
-0.135681391
-0.063912176
-0.010675608
0.045154572
0.045745563
0.046288852
0.032101378
0.046436243
0.076274186
0.111296386
0.129582182
0.140108109
0.165162802
0.234899014
0.293545723
0.342676163
0.416418582
0.454780161
0.477040380
0.510490119
0.504292846
0.469879836
0.395755947
0.296019435
0.266958088
0.233939603
0.185413077
0.147767231
0.137477964
0.100020155
0.060955789
0.065412931
0.057149827
0.015211276
-0.019488346
0.005670093
-0.038043831
-0.090823717
-0.107013322
-0.154702350
-0.165404990
-0.195117623
-0.213322014
-0.211762816
-0.242913723
-0.216831893
-0.204075113
-0.192793652
-0.179497644
-0.139366984
-0.088599801
-0.074419737
-0.066524141
-0.020344522
-0.034035500
-0.010824749
-0.026983239
-0.092564613
-0.135701641
-0.170170501
-0.258180410
-0.278217107
-0.271940917
-0.276597708
-0.299227804
-0.310238272
-0.319157958
-0.334390432
-0.359931350
-0.317468971
-0.317736775
-0.334736705
-0.330036074
-0.384897292
-0.394951820
-0.395580411
-0.402367473
-0.384766519
-0.400081992
-0.376466900
-0.394156784
-0.389433146
-0.379843742
-0.392963439
-0.440268666
-0.366816700
-0.397569448
-0.380472571
-0.357919574
-0.346968472
-0.393830240
-0.377873182
-0.382160157
-0.444233477
-0.418467075
-0.466298133
</_></support_vectors> 
   <uncompressed_sv_total>0</uncompressed_sv_total> 
   <decision_functions> 
     <_> 
       <sv_count>1</sv_count> 
       <rho> -1.653932691
</rho>  
       <alpha>  
         1.</alpha>  
       <index>  
         0</index></_></decision_functions></opencv_ml_svm>  
 </opencv_storage>  
