<?xml version="1.0"?>
 <opencv_storage>
  <opencv_ml_svm>
   <svmType>C_SVC</svmType>
   <kernel>
     <type>LINEAR</type></kernel>
   <C>1.</C>
   <term_criteria><iterations>100</iterations></term_criteria>
   <var_count>128</var_count>
   <class_count>2</class_count>
   <class_labels type_id="opencv-matrix">
     <rows>2</rows>
     <cols>1</cols>
     <dt>i</dt>
     <data>
       -1 1</data></class_labels>
   <sv_total>1</sv_total>
   <support_vectors>
     <_>
-0.052221686
-0.121761069
-0.211573824
-0.504125535
-0.582988679
-0.689089537
-0.716216445
-0.985069990
-1.080680490
-1.138326526
-1.188253760
-1.195675611
-1.239497423
-1.285116196
-1.176450253
-1.123436332
-1.117720962
-1.039537311
-0.853757083
-0.687690079
-0.508756459
-0.353198737
-0.049717221
0.173560575
0.397331625
0.509826541
0.568273544
0.591338515
0.535190105
0.503594935
0.394351155
0.385255426
0.451010257
0.534575164
0.797057867
0.952919424
1.011961102
0.966524601
0.952497602
0.794618666
0.765250266
0.551288664
0.419468433
0.204386458
0.077852331
0.070752457
0.055187829
0.032669686
0.253158331
0.289069414
0.427362800
0.624720097
0.673933446
0.723055840
0.773799062
0.759857297
0.826714754
0.774290562
0.825714469
0.705729187
0.640447319
0.639872968
0.523765028
0.496548116
0.268743157
0.150369123
0.009854721
-0.068791255
-0.221714765
-0.354663104
-0.507851183
-0.630312800
-0.690262139
-0.803788662
-0.834809780
-1.092366099
-1.052280545
-1.122537971
-1.116278648
-1.077527404
-0.901339054
-0.661012948
-0.415817380
-0.019386200
0.543489516
0.870574594
0.936694324
1.017064095
0.921429574
0.751871049
0.571316600
0.129947945
-0.140294194
-0.230511010
-0.234215111
-0.492941648
-0.454659045
-0.545216680
-0.397009611
-0.412615448
-0.419172376
-0.469047755
-0.301673084
-0.363939553
-0.430227578
-0.318106830
-0.417195976
-0.067851454
-0.040128268
-0.181708321
-0.044028431
-0.140185416
-0.050148316
-0.012633958
0.324818164
0.365978718
-0.017631467
0.329928875
0.182173803
0.396463454
0.722680271
0.529389262
0.109885275
0.278964281
0.442450821
0.563316882
0.223957583
0.279937059
</_></support_vectors> 
   <uncompressed_sv_total>0</uncompressed_sv_total> 
   <decision_functions> 
     <_> 
       <sv_count>1</sv_count> 
       <rho> -0.485123336
</rho>  
       <alpha>  
         1.</alpha>  
       <index>  
         0</index></_></decision_functions></opencv_ml_svm>  
 </opencv_storage>  
