<?xml version="1.0"?>
 <opencv_storage>
  <opencv_ml_svm>
   <svmType>C_SVC</svmType>
   <kernel>
     <type>LINEAR</type></kernel>
   <C>1.</C>
   <term_criteria><iterations>100</iterations></term_criteria>
   <var_count>128</var_count>
   <class_count>2</class_count>
   <class_labels type_id="opencv-matrix">
     <rows>2</rows>
     <cols>1</cols>
     <dt>i</dt>
     <data>
       -1 1</data></class_labels>
   <sv_total>1</sv_total>
   <support_vectors>
     <_>
0.461781800
0.469737947
0.223392278
-0.041809548
0.073725827
-0.128239676
-0.319968820
-0.230412930
-0.421971530
-0.644655883
-0.280788571
-0.370349109
-0.384886652
-0.498597175
-0.434872001
-0.320165306
-0.212659851
-0.173646748
0.177914590
0.283134013
0.343724579
0.302608997
0.400162101
0.344173878
0.468324214
0.563266397
0.389302433
0.395705909
0.402801335
0.637018263
0.780007720
0.666218519
0.606381953
0.635782778
0.446943402
0.298174560
0.159130365
0.168076381
0.301290840
0.397235662
0.739874899
1.023611426
1.056776762
1.039200544
0.840864360
0.608063936
0.168610111
-0.077398501
-0.160632506
-0.270713180
-0.354242384
-0.215685487
-0.064300828
-0.013115384
0.174735650
0.367166042
0.688740671
0.787409008
0.958165526
1.141405940
1.145523190
1.153304458
1.046527028
0.814668894
0.658118010
0.543322742
0.378355980
-0.052908875
-0.230342880
-0.152379557
-0.219475299
-0.428547949
-0.591583371
-0.600500822
-0.622120142
-0.731550038
-0.700493157
-0.836271584
-0.757771730
-0.492221385
-0.233218372
-0.009248246
0.335345030
0.743964911
1.419476271
1.601930261
1.725464940
1.858452320
1.641425848
1.478241444
0.712374985
0.056632690
-0.238060281
-0.615261734
-1.075960875
-0.889854789
-1.361922979
-1.294028521
-1.395689011
-1.621597648
-1.560624123
-1.352418184
-1.634508252
-1.692080975
-1.327630877
-1.293778896
-1.070034862
-0.784885645
-1.083773613
-1.091152787
-1.009319901
-0.849967539
-0.877503633
-0.417429447
-0.610580504
-0.258929491
-0.525769293
-0.262428015
0.056975659
0.125930265
0.199593857
-0.047624487
0.304013252
-0.378066331
-0.133575290
-0.159502491
-0.307611734
-0.332078904
</_></support_vectors> 
   <uncompressed_sv_total>0</uncompressed_sv_total> 
   <decision_functions> 
     <_> 
       <sv_count>1</sv_count> 
       <rho> -13.100676537
</rho>  
       <alpha>  
         1.</alpha>  
       <index>  
         0</index></_></decision_functions></opencv_ml_svm>  
 </opencv_storage>  
