<?xml version="1.0"?>
 <opencv_storage>
  <opencv_ml_svm>
   <svmType>C_SVC</svmType>
   <kernel>
     <type>LINEAR</type></kernel>
   <C>1.</C>
   <term_criteria><iterations>100</iterations></term_criteria>
   <var_count>128</var_count>
   <class_count>2</class_count>
   <class_labels type_id="opencv-matrix">
     <rows>2</rows>
     <cols>1</cols>
     <dt>i</dt>
     <data>
       -1 1</data></class_labels>
   <sv_total>1</sv_total>
   <support_vectors>
     <_>
4.233036995
2.888527870
2.495739937
2.152880430
1.837400913
1.816449285
1.182684660
1.278839588
0.936852336
0.952257514
1.292429447
1.490250826
1.279567599
1.145362973
1.109441280
1.673983932
1.236490607
1.010875583
0.947047472
1.164642811
0.944268525
0.777962923
0.454769522
-0.045647364
-0.371071786
-0.463766187
-0.608186781
-0.719767928
-0.563210547
-0.009010639
0.103503875
0.173089683
0.155963615
-0.508678257
-1.266928673
-1.794508696
-2.249985695
-2.358319759
-2.838008642
-2.874987841
-2.325537920
-0.734574854
0.569344223
1.745882273
2.130571127
2.316595078
1.695406199
1.240129471
0.413788736
0.015253940
-0.559519589
-0.323808581
-0.373374909
-0.245006114
-0.207485989
0.443201721
0.698401511
0.918984115
1.242896080
1.819976211
1.954619050
1.537852645
1.361104369
1.143949151
0.992585838
0.959288955
0.761917233
0.421292424
0.336159796
0.226010084
0.451236069
0.014250810
-0.163322702
0.053538367
0.176805750
0.676511765
0.480351657
0.426124215
0.644575536
0.597976804
0.682519615
0.535297215
0.322875381
-0.225997582
0.341124356
0.118452482
-0.393723279
-0.441483468
-0.177924648
-0.166508764
-0.399101257
-0.681744218
-0.845028162
-1.280734062
-1.624177694
-1.212132931
-1.695262074
-1.187431335
-1.826728582
-1.954584241
-1.908823848
-1.870217323
-1.994848132
-2.294451714
-1.981235862
-1.148564696
-0.739629328
-0.661977530
-0.485474616
-1.078186154
-0.769334435
-0.841576755
0.120949283
-0.852388740
-0.527441204
-0.261432528
-0.629388452
-0.506715119
-0.101517282
-0.435404807
-0.280792773
-1.004682779
-0.377121747
-0.679298699
-0.568951190
-1.143671751
-1.833133221
-1.376454949
</_></support_vectors> 
   <uncompressed_sv_total>0</uncompressed_sv_total> 
   <decision_functions> 
     <_> 
       <sv_count>1</sv_count> 
       <rho> -18.367284775
</rho>  
       <alpha>  
         1.</alpha>  
       <index>  
         0</index></_></decision_functions></opencv_ml_svm>  
 </opencv_storage>  
