<?xml version="1.0"?>
 <opencv_storage>
  <opencv_ml_svm>
   <svmType>C_SVC</svmType>
   <kernel>
     <type>LINEAR</type></kernel>
   <C>1.</C>
   <term_criteria><iterations>100</iterations></term_criteria>
   <var_count>128</var_count>
   <class_count>2</class_count>
   <class_labels type_id="opencv-matrix">
     <rows>2</rows>
     <cols>1</cols>
     <dt>i</dt>
     <data>
       -1 1</data></class_labels>
   <sv_total>1</sv_total>
   <support_vectors>
     <_>
0.231085017
0.559897661
0.665769041
0.558567286
0.481167197
0.655918181
0.546048582
0.498510003
0.570728004
0.830337763
0.849012554
0.714058816
0.740552306
0.781089723
0.876394808
0.992172122
0.920929432
0.938070178
0.943705678
0.936041594
0.816886485
0.664059997
0.609983802
0.299162388
0.135906458
0.028190527
-0.129403487
-0.140147075
0.019834299
0.150422871
0.392275631
0.413570940
0.425913572
0.392814100
0.079352520
-0.033459403
-0.241583079
-0.134002909
0.295905530
0.812218726
1.240222216
1.549856067
1.678282976
1.764712930
1.552586913
1.261544228
1.036865354
1.008334279
0.782252491
0.561225235
0.383161277
0.371205211
0.420624554
0.285435706
0.260901004
0.278969049
0.365578651
0.313515186
0.410876274
0.658485472
0.511157990
0.447255403
0.420186251
0.272884309
0.199490339
0.065447502
0.014374143
-0.083960332
-0.134562135
-0.142831057
-0.240998134
-0.240213275
-0.213352278
-0.337071568
-0.305606633
-0.328023344
-0.248384029
-0.216107190
-0.276836216
-0.347633421
-0.216111556
-0.271127313
-0.166376784
-0.110123962
-0.137876794
-0.009526545
0.010697387
-0.001537881
-0.187226623
-0.097520307
-0.344647110
-0.438804120
-0.428009838
-0.554132402
-0.566709876
-0.483009130
-0.673921287
-0.854784250
-0.715072989
-0.830466807
-0.811054826
-0.509936154
-0.686362743
-0.765492558
-0.501566827
-0.673507571
-0.337116390
-0.508009076
-0.505007386
-0.550709486
-0.159410626
-0.462478817
-0.179836407
-0.234860435
-0.438947558
-0.232861221
-0.165184498
-0.117892198
0.066197172
0.025727060
-0.039006453
0.091912799
-0.040893801
-0.189203784
-0.489341170
0.150922939
0.020531338
-0.182521984
</_></support_vectors> 
   <uncompressed_sv_total>0</uncompressed_sv_total> 
   <decision_functions> 
     <_> 
       <sv_count>1</sv_count> 
       <rho> -8.178517342
</rho>  
       <alpha>  
         1.</alpha>  
       <index>  
         0</index></_></decision_functions></opencv_ml_svm>  
 </opencv_storage>  
