<?xml version="1.0"?>
 <opencv_storage>
  <opencv_ml_svm>
   <svmType>C_SVC</svmType>
   <kernel>
     <type>LINEAR</type></kernel>
   <C>1.</C>
   <term_criteria><iterations>100</iterations></term_criteria>
   <var_count>128</var_count>
   <class_count>2</class_count>
   <class_labels type_id="opencv-matrix">
     <rows>2</rows>
     <cols>1</cols>
     <dt>i</dt>
     <data>
       -1 1</data></class_labels>
   <sv_total>1</sv_total>
   <support_vectors>
     <_>
0.717552006
0.565269232
0.121178098
-0.008198514
-0.181340486
-0.376964182
-0.305875570
-0.256340563
-0.524625123
-0.676378191
-1.056265354
-1.204684138
-1.164779902
-1.270498753
-1.163977742
-1.539507031
-1.373532057
-1.307501316
-1.241846323
-1.049453020
-1.115275741
-0.794304669
-0.453980267
-0.262702674
-0.047763620
0.047811724
0.276340723
0.289215297
-0.029353550
-0.139419496
-0.285981655
-0.307533324
-0.290402502
-0.247143835
-0.017921187
0.220222518
0.307355642
0.131579340
-0.199865788
-0.577135563
-0.970239699
-1.355402946
-1.433941960
-1.435062051
-1.585262060
-1.734908700
-1.740433216
-1.506921887
-1.180184603
-0.970819414
-0.799414992
-0.415443540
-0.323466331
-0.093467206
0.169323668
0.465130001
0.774456918
0.801968515
0.972636998
1.124974132
1.203009844
1.260926962
1.509888411
1.495978713
1.490653872
1.418797612
1.358231306
1.438838720
1.116997004
1.158525229
1.058727622
1.096562982
0.729762495
0.481322408
0.328194171
0.136182353
0.037408512
0.043081507
-0.080987506
0.018311741
0.633569896
0.601770580
1.100485682
1.599635124
2.091096640
2.503475189
2.867249250
3.185799122
2.570772648
1.888700843
1.873877048
0.840309381
0.230393514
-0.389387101
-0.677648485
-0.551530600
-0.998436272
-1.185166359
-0.854484916
-1.367889643
-1.313379169
-1.557866335
-1.664098382
-1.398287296
-1.543856859
-1.438521981
-1.622100115
-1.518371701
-1.439336658
-1.331479430
-1.265456200
-1.448980093
-1.175243020
-0.809077859
-0.352556884
-0.820144475
-0.200899869
-0.175465584
0.057749424
-0.289913118
0.306689352
0.096999951
-0.246802941
0.242672518
0.482483119
0.233765632
0.785597146
0.621177614
</_></support_vectors> 
   <uncompressed_sv_total>0</uncompressed_sv_total> 
   <decision_functions> 
     <_> 
       <sv_count>1</sv_count> 
       <rho> 4.277698040
</rho>  
       <alpha>  
         1.</alpha>  
       <index>  
         0</index></_></decision_functions></opencv_ml_svm>  
 </opencv_storage>  
