<?xml version="1.0"?>
 <opencv_storage>
  <opencv_ml_svm>
   <svmType>C_SVC</svmType>
   <kernel>
     <type>LINEAR</type></kernel>
   <C>1.</C>
   <term_criteria><iterations>100</iterations></term_criteria>
   <var_count>128</var_count>
   <class_count>2</class_count>
   <class_labels type_id="opencv-matrix">
     <rows>2</rows>
     <cols>1</cols>
     <dt>i</dt>
     <data>
       -1 1</data></class_labels>
   <sv_total>1</sv_total>
   <support_vectors>
     <_>
0.190150768
0.138833612
0.050708249
0.250147521
0.255037993
0.187273026
0.162263587
0.178301498
0.054235328
0.029861458
-0.106355414
-0.123608939
-0.129169255
-0.287857205
-0.544367135
-0.724441230
-0.763387740
-0.816263676
-1.041594028
-0.968548954
-0.983360648
-0.897581756
-0.733841777
-0.531137526
-0.415481478
-0.282935292
-0.227316290
-0.165696546
-0.335947216
-0.637360096
-0.780458689
-0.915674329
-1.082698464
-0.993116558
-0.908715129
-0.815084040
-0.706899047
-0.867079794
-1.565822363
-2.326267958
-2.801012278
-2.865910292
-2.702513933
-2.338916779
-1.925503373
-1.464820385
-1.133808255
-0.945015609
-0.774053991
-0.628597677
-0.423354030
-0.255812019
-0.215301543
-0.120985918
-0.109004952
0.049646821
0.051412731
0.137010589
0.089916945
0.095467269
0.192682698
0.202909321
0.268809110
0.378268927
0.446382761
0.400722921
0.544769585
0.529807031
0.665579438
0.743008733
0.717062056
0.794553339
0.711394012
0.767757833
0.713059306
0.724976778
0.684900939
0.730121017
0.686466038
0.664624691
0.481257409
0.345564365
0.420341939
0.351584643
0.307110369
0.088960446
0.156262457
0.277762711
0.089163311
0.048882701
0.182852432
0.315574765
0.358063042
0.238384932
0.161226898
0.124295019
0.372682631
0.346867055
0.248225048
0.199578598
0.238390699
0.502312064
0.271722645
0.018743176
0.286290407
0.278552234
0.014982205
-0.118681058
-0.041481495
-0.003967171
-0.008562996
0.033271406
0.266674101
-0.097953409
-0.121075794
-0.024998797
-0.062592059
-0.262295902
-0.393890649
-0.543578625
-0.145218655
-0.001854693
-0.005927903
-0.480328232
-0.659997225
-0.400324762
-0.229755670
-0.057554301
</_></support_vectors> 
   <uncompressed_sv_total>0</uncompressed_sv_total> 
   <decision_functions> 
     <_> 
       <sv_count>1</sv_count> 
       <rho> 5.769646645
</rho>  
       <alpha>  
         1.</alpha>  
       <index>  
         0</index></_></decision_functions></opencv_ml_svm>  
 </opencv_storage>  
