<?xml version="1.0"?>
 <opencv_storage>
  <opencv_ml_svm>
   <svmType>C_SVC</svmType>
   <kernel>
     <type>LINEAR</type></kernel>
   <C>1.</C>
   <term_criteria><iterations>100</iterations></term_criteria>
   <var_count>128</var_count>
   <class_count>2</class_count>
   <class_labels type_id="opencv-matrix">
     <rows>2</rows>
     <cols>1</cols>
     <dt>i</dt>
     <data>
       -1 1</data></class_labels>
   <sv_total>1</sv_total>
   <support_vectors>
     <_>
1.385073423
0.935728252
0.606927216
0.537748754
0.236541569
0.030578867
-0.134214282
-0.251164049
-0.099041246
0.172501743
0.193125173
0.047425013
0.152169794
0.281133473
0.060428172
-0.002610408
0.088220641
0.286880970
0.347930223
0.545298517
0.687463045
0.427078128
0.266045928
0.244752795
0.144964948
-0.063741341
0.211677879
0.244665682
0.867473543
1.275818944
1.748548269
2.127691746
2.108713865
1.151054621
-0.119311541
-0.748999655
-1.007169127
-1.210217834
-1.658907056
-1.954553962
-1.249115705
0.956318796
3.356789351
5.111225128
5.908024311
5.429751396
3.857888222
1.952431798
0.506946027
-0.791133046
-1.749359608
-2.278114319
-2.545207500
-2.478251219
-2.203256845
-1.435707808
-0.824023008
-0.239392415
0.610841453
0.994887352
1.085544229
1.089241862
0.713928878
0.120616958
-0.014358337
-0.562136829
-0.782180250
-0.804318547
-1.236962557
-1.208672762
-1.347790360
-1.371491551
-1.659553766
-1.539473772
-1.401724815
-1.504407525
-1.009993553
-0.816955924
-0.542933643
-0.410706311
-0.182212904
-0.109835736
0.076252013
0.326946825
0.560042799
1.227480531
1.453381538
1.279213071
0.902620018
0.543889821
-0.333580822
-0.245201632
-0.728541434
-1.396279335
-1.595958591
-1.510243416
-1.998761415
-2.298705816
-1.853782892
-1.755487442
-2.204324961
-2.073645592
-1.541482449
-1.783168435
-1.447888970
-0.821972311
-0.576914370
-0.657227933
-0.441892534
-0.102155261
-0.483770043
-0.388173193
-0.213909313
-0.634225845
-1.125306964
-0.216993064
-0.708332419
-0.676105499
-0.215931118
-0.294051915
-0.847308397
-0.768185377
-1.221747041
-1.352622986
-1.327682376
-1.269853234
-0.910338342
-0.022526506
</_></support_vectors> 
   <uncompressed_sv_total>0</uncompressed_sv_total> 
   <decision_functions> 
     <_> 
       <sv_count>1</sv_count> 
       <rho> -37.712985992
</rho>  
       <alpha>  
         1.</alpha>  
       <index>  
         0</index></_></decision_functions></opencv_ml_svm>  
 </opencv_storage>  
