<?xml version="1.0"?>
 <opencv_storage>
  <opencv_ml_svm>
   <svmType>C_SVC</svmType>
   <kernel>
     <type>LINEAR</type></kernel>
   <C>1.</C>
   <term_criteria><iterations>100</iterations></term_criteria>
   <var_count>128</var_count>
   <class_count>2</class_count>
   <class_labels type_id="opencv-matrix">
     <rows>2</rows>
     <cols>1</cols>
     <dt>i</dt>
     <data>
       -1 1</data></class_labels>
   <sv_total>1</sv_total>
   <support_vectors>
     <_>
-0.141737059
-0.079403654
0.092798516
0.108019039
0.101809174
0.107843705
0.110066839
0.199146122
0.296019465
0.314142883
0.426094919
0.462371290
0.539423466
0.556199610
0.595401347
0.549755931
0.534876466
0.517942965
0.561088800
0.517619908
0.470390826
0.364780396
0.283480644
0.207039490
0.139348820
0.073730618
0.054787841
0.047025260
0.048963543
0.093079366
0.081765249
0.136740774
0.124490432
0.075166680
0.016403241
-0.041731641
-0.071825109
-0.070575170
0.019032162
0.185488164
0.397346318
0.622625411
0.819649279
0.890601397
0.879319191
0.827885151
0.732354283
0.615841568
0.545348048
0.458561569
0.380840003
0.355870575
0.266200334
0.222097367
0.199554577
0.163327724
0.094684571
0.066446468
0.097046368
0.103613108
0.042069383
-0.061519761
-0.111692891
-0.216759935
-0.266564459
-0.342730850
-0.488365054
-0.501550078
-0.593268275
-0.609689474
-0.603580475
-0.604085088
-0.653616071
-0.607941508
-0.515137792
-0.517890036
-0.491032600
-0.509300232
-0.459814548
-0.327362210
-0.230688348
-0.087177403
-0.042112015
0.172357872
0.293177664
0.325050414
0.394540966
0.427198261
0.424442828
0.257714540
0.141364425
0.042105887
0.037974209
0.012802592
-0.086186662
-0.199808359
-0.261382997
-0.229589045
-0.161363244
-0.209382892
-0.120753370
-0.170065448
-0.235663474
-0.193226054
-0.094458573
-0.018505059
-0.047700901
-0.066571072
-0.000996047
-0.005857102
-0.086878292
-0.048582383
-0.029664623
0.029062124
0.020496996
0.015094574
-0.046556707
-0.046767998
-0.070238091
0.045409810
-0.071405165
-0.174528688
-0.269870520
-0.124584347
-0.018480407
0.017590288
-0.262178719
-0.122053653
</_></support_vectors> 
   <uncompressed_sv_total>0</uncompressed_sv_total> 
   <decision_functions> 
     <_> 
       <sv_count>1</sv_count> 
       <rho> -4.351829529
</rho>  
       <alpha>  
         1.</alpha>  
       <index>  
         0</index></_></decision_functions></opencv_ml_svm>  
 </opencv_storage>  
