<?xml version="1.0"?>
 <opencv_storage>
  <opencv_ml_svm>
   <svmType>C_SVC</svmType>
   <kernel>
     <type>LINEAR</type></kernel>
   <C>1.</C>
   <term_criteria><iterations>100</iterations></term_criteria>
   <var_count>128</var_count>
   <class_count>2</class_count>
   <class_labels type_id="opencv-matrix">
     <rows>2</rows>
     <cols>1</cols>
     <dt>i</dt>
     <data>
       -1 1</data></class_labels>
   <sv_total>1</sv_total>
   <support_vectors>
     <_>
1.332555652
0.854040563
0.501813412
0.277167946
-0.101715937
-0.204099908
-0.411909342
-0.434147209
-0.483278453
-0.322243303
-0.345297098
-0.313049167
-0.277574033
-0.527577102
-0.170873016
-0.319440156
-0.356028497
-0.206983596
-0.246824443
-0.096294686
0.056668893
0.159856811
0.212210551
0.307636738
0.443385810
0.396543413
0.485757947
0.590952694
0.574188471
0.340554863
0.211055905
0.161619812
0.160758525
0.139816791
0.320995301
0.466376126
0.427896947
0.260069340
-0.039190825
-0.379440010
-0.452254653
-0.329751670
-0.327434778
-0.281320125
-0.397414178
-0.387604356
-0.294564337
-0.282438129
-0.202280954
0.162069187
0.320603222
0.714429140
1.023993492
1.447555184
1.721151233
2.020873070
2.090343475
2.130120754
2.044200659
1.683970332
1.233142614
0.967453778
0.652714431
0.356031209
0.037611857
-0.480630964
-0.870762110
-1.363386154
-1.441382289
-1.791685104
-1.958482146
-1.968196273
-2.058246374
-2.273273945
-2.088210821
-2.089503050
-1.992635489
-1.856990814
-1.605909228
-1.208082795
-0.743174136
-0.635306835
0.023320301
0.764746010
1.090755105
1.504659534
1.833994746
2.087450504
1.824385762
1.474027395
1.197704673
0.916407704
0.476478070
0.204684779
-0.469138086
-0.382857025
-0.418314070
-0.393757403
-0.615580261
-0.742674887
-1.026979446
-0.821160614
-0.487432986
-0.624999642
-0.101035371
-0.193812624
-0.263603210
-0.262031764
-0.857552886
-0.570980668
-0.389255762
-0.222797632
-0.094477452
0.007379010
-0.028380668
0.178704247
0.153756201
-0.141696304
0.012139319
0.360413522
0.283312559
0.794715345
0.528349638
0.351040363
0.189050749
0.054806851
0.205388635
0.382018387
</_></support_vectors> 
   <uncompressed_sv_total>0</uncompressed_sv_total> 
   <decision_functions> 
     <_> 
       <sv_count>1</sv_count> 
       <rho> -5.423172474
</rho>  
       <alpha>  
         1.</alpha>  
       <index>  
         0</index></_></decision_functions></opencv_ml_svm>  
 </opencv_storage>  
