<?xml version="1.0"?>
 <opencv_storage>
  <opencv_ml_svm>
   <svmType>C_SVC</svmType>
   <kernel>
     <type>LINEAR</type></kernel>
   <C>1.</C>
   <term_criteria><iterations>100</iterations></term_criteria>
   <var_count>128</var_count>
   <class_count>2</class_count>
   <class_labels type_id="opencv-matrix">
     <rows>2</rows>
     <cols>1</cols>
     <dt>i</dt>
     <data>
       -1 1</data></class_labels>
   <sv_total>1</sv_total>
   <support_vectors>
     <_>
0.492942035
0.393969327
0.341418654
0.110227555
0.109599270
0.037923787
-0.007261873
-0.039490320
-0.160696089
-0.211899012
-0.326637596
-0.374290884
-0.403623492
-0.424412757
-0.536640048
-0.561807752
-0.594339252
-0.612694681
-0.657301307
-0.669185638
-0.625194609
-0.597354949
-0.437593490
-0.312418103
-0.266539007
-0.247526780
-0.196308509
-0.200041339
-0.230984718
-0.359390020
-0.443649769
-0.539856911
-0.555762172
-0.551100612
-0.501583219
-0.395548880
-0.374738812
-0.459175646
-0.692340195
-1.086647630
-1.513109088
-1.740348339
-1.796201825
-1.697885156
-1.535298586
-1.295675159
-1.132111430
-1.050742149
-0.950119376
-0.886476636
-0.789815664
-0.758569717
-0.672972739
-0.594578385
-0.545418799
-0.461060196
-0.383461773
-0.391451746
-0.378966689
-0.345573962
-0.318181694
-0.331371278
-0.379409671
-0.240842760
-0.106308050
-0.126019612
-0.012127735
0.068033434
0.080058202
0.057441726
0.148723736
0.184652805
0.305922359
0.236132190
0.208099484
0.286492169
0.226123780
0.263052702
0.260608822
0.254520267
0.188298926
0.093058579
-0.056399174
-0.081192672
-0.168363959
-0.160020232
-0.051929563
-0.164267451
-0.227356493
-0.129394844
-0.071505129
0.074519381
0.020432776
-0.023798112
0.038106322
0.127274469
0.095194638
0.100771412
0.147841737
0.137264505
-0.049313694
0.098801576
0.179029092
0.070300281
0.187575251
-0.042794686
0.123350024
0.167933390
0.085412048
0.093670800
0.256519079
0.119716808
0.094901927
0.308825374
0.041635063
0.013161542
0.155003831
-0.064186931
-0.151761860
-0.345068246
-0.128211096
-0.186487153
-0.023322305
-0.320556372
-0.291862220
-0.059917383
0.072448134
-0.038043674
</_></support_vectors> 
   <uncompressed_sv_total>0</uncompressed_sv_total> 
   <decision_functions> 
     <_> 
       <sv_count>1</sv_count> 
       <rho> -6.783984661
</rho>  
       <alpha>  
         1.</alpha>  
       <index>  
         0</index></_></decision_functions></opencv_ml_svm>  
 </opencv_storage>  
