<?xml version="1.0"?>
 <opencv_storage>
  <opencv_ml_svm>
   <svmType>C_SVC</svmType>
   <kernel>
     <type>LINEAR</type></kernel>
   <C>1.</C>
   <term_criteria><iterations>100</iterations></term_criteria>
   <var_count>128</var_count>
   <class_count>2</class_count>
   <class_labels type_id="opencv-matrix">
     <rows>2</rows>
     <cols>1</cols>
     <dt>i</dt>
     <data>
       -1 1</data></class_labels>
   <sv_total>1</sv_total>
   <support_vectors>
     <_>
-0.024037585
-0.065198570
-0.151931450
-0.230676070
-0.397337079
-0.539670110
-0.723441303
-0.840639472
-0.924693763
-0.979998350
-0.968678772
-1.030173421
-1.060735822
-1.105652571
-1.052204967
-1.087327600
-1.034067988
-0.965266347
-1.018963099
-0.934698343
-0.784151256
-0.609042406
-0.445081592
-0.250317961
-0.112230144
0.029180298
0.068991713
0.119061887
0.037653334
-0.081743181
-0.146926731
-0.250831455
-0.198033378
-0.011144704
0.213394746
0.449891448
0.466213614
0.471290916
0.283743352
0.107674778
-0.063976660
-0.233752608
-0.392883271
-0.384514362
-0.379699796
-0.305455655
-0.148925200
0.060134377
0.213002741
0.409582794
0.532173157
0.630052507
0.810949385
0.880797088
0.952299654
0.919335186
0.936790764
0.866490066
0.734756589
0.725974798
0.617691338
0.557489097
0.491630495
0.479146898
0.351422310
0.310368270
0.210847735
0.068110690
0.010109080
-0.106695950
-0.198345155
-0.273294330
-0.398664653
-0.377349526
-0.391912878
-0.472965062
-0.475900501
-0.459700853
-0.365382880
-0.421916842
-0.347811192
-0.395487279
-0.260241538
-0.093550399
0.064358503
0.126897931
0.189305738
0.233364224
0.226390138
0.101943851
0.312576592
0.241707757
0.132738292
-0.006486737
-0.006249803
0.131521806
0.108661920
0.158825174
0.189836547
0.229650244
0.117344618
0.206193641
0.041263133
0.110601172
0.252765566
0.117086403
0.082839511
0.149361983
0.201975480
0.098925777
0.219635680
0.372900903
0.351234704
0.338096917
0.530395091
0.469376266
0.471172392
0.546324372
0.365944505
0.587400675
0.938443422
0.553080797
0.672643244
0.938367426
0.662965178
0.769792140
0.653340518
0.600115418
</_></support_vectors> 
   <uncompressed_sv_total>0</uncompressed_sv_total> 
   <decision_functions> 
     <_> 
       <sv_count>1</sv_count> 
       <rho> 13.324182510
</rho>  
       <alpha>  
         1.</alpha>  
       <index>  
         0</index></_></decision_functions></opencv_ml_svm>  
 </opencv_storage>  
