<?xml version="1.0"?>
 <opencv_storage>
  <opencv_ml_svm>
   <svmType>C_SVC</svmType>
   <kernel>
     <type>LINEAR</type></kernel>
   <C>1.</C>
   <term_criteria><iterations>100</iterations></term_criteria>
   <var_count>128</var_count>
   <class_count>2</class_count>
   <class_labels type_id="opencv-matrix">
     <rows>2</rows>
     <cols>1</cols>
     <dt>i</dt>
     <data>
       -1 1</data></class_labels>
   <sv_total>1</sv_total>
   <support_vectors>
     <_>
0.597509086
0.455639273
0.282441348
0.147511944
0.071043581
0.013827960
0.066135094
0.072501153
-0.225084618
-0.278494775
-0.288655221
-0.354598016
-0.444937676
-0.573394716
-0.582474053
-0.629011631
-0.546300411
-0.522623658
-0.501465321
-0.466418147
-0.435971320
-0.323525816
-0.227423027
-0.181973487
-0.049847648
-0.040783741
0.002974544
-0.027725674
-0.073110856
-0.161486655
-0.214030102
-0.276583135
-0.270634651
-0.251627237
-0.222206622
-0.174885273
-0.199687675
-0.278657645
-0.515101612
-0.809407592
-1.028560042
-1.266862392
-1.455670238
-1.458789706
-1.378463149
-1.175375581
-1.011913538
-0.826230407
-0.598145604
-0.385422260
-0.222678930
-0.019550379
0.133487046
0.187283471
0.312186331
0.340319782
0.417005032
0.421585292
0.306492805
0.180030316
0.150927201
0.173814818
0.129033655
0.217308164
0.195490286
0.251860976
0.266798973
0.369507492
0.475214392
0.486160100
0.351212800
0.433795780
0.514239907
0.446690500
0.478297293
0.415078223
0.471759349
0.523126721
0.565895498
0.489488631
0.291195750
0.016858416
-0.117248587
-0.476422727
-0.682711959
-0.759841681
-0.915592134
-0.873740137
-0.745719731
-0.340118259
-0.228466511
-0.043908156
0.217298895
0.383832902
0.516660810
0.763479531
0.707503021
0.719902754
0.591100335
0.634917438
0.630760729
0.358569086
0.581964254
0.655534267
0.452730596
0.305874377
-0.065383613
-0.147831962
-0.210093349
-0.285887361
-0.314166874
-0.152412280
-0.199204937
-0.125137761
-0.233006999
-0.191457555
0.037731007
0.026767105
-0.267775774
-0.080097258
0.086266205
0.102902770
-0.071896024
-0.208296329
-0.171524778
-0.141699538
0.381550908
-0.068374582
</_></support_vectors> 
   <uncompressed_sv_total>0</uncompressed_sv_total> 
   <decision_functions> 
     <_> 
       <sv_count>1</sv_count> 
       <rho> 4.630352974
</rho>  
       <alpha>  
         1.</alpha>  
       <index>  
         0</index></_></decision_functions></opencv_ml_svm>  
 </opencv_storage>  
