<?xml version="1.0"?>
 <opencv_storage>
  <opencv_ml_svm>
   <svmType>C_SVC</svmType>
   <kernel>
     <type>LINEAR</type></kernel>
   <C>1.</C>
   <term_criteria><iterations>100</iterations></term_criteria>
   <var_count>128</var_count>
   <class_count>2</class_count>
   <class_labels type_id="opencv-matrix">
     <rows>2</rows>
     <cols>1</cols>
     <dt>i</dt>
     <data>
       -1 1</data></class_labels>
   <sv_total>1</sv_total>
   <support_vectors>
     <_>
-0.111651756
-0.033993404
-0.014562063
-0.096149944
-0.090591267
-0.020860741
-0.062510580
-0.049993202
-0.075587839
-0.000401772
-0.084981993
-0.081416897
-0.065482505
-0.086344518
-0.063280649
-0.088409826
-0.080239013
-0.091396786
-0.048845515
-0.062376577
-0.089726456
-0.080290705
-0.056599319
-0.065418921
-0.072483636
-0.053346850
-0.076586924
-0.074780665
-0.041618824
-0.045667764
-0.055712167
-0.059103858
-0.053983629
-0.055977739
-0.063814186
-0.086852595
-0.072897688
-0.065779008
-0.064098641
-0.067624904
-0.067494176
-0.080450527
-0.087792046
-0.040355690
-0.056358565
-0.087274656
-0.059680022
-0.033071805
-0.019043565
-0.035751432
-0.031247638
-0.029361498
-0.009831454
0.007107694
0.011306166
-0.008467684
0.009018451
-0.005711667
0.002620674
0.040498693
0.074397944
0.049715288
0.049353268
0.025113426
0.058789004
0.078846499
0.084241711
0.084382027
0.102240533
0.150254354
0.144563451
0.134449020
0.143155858
0.151039585
0.169551820
0.165965617
0.193489462
0.197402716
0.174442500
0.173129469
0.155913681
0.124652907
0.136077821
0.139247000
0.116981722
0.131894484
0.097632043
0.111644134
0.127908200
0.163318768
0.100054063
0.120807931
0.158024967
0.108227737
0.186459929
0.184508160
0.154782191
0.156957090
0.102157250
0.061906885
0.110126212
0.174585164
0.203171343
0.091463737
0.101687983
0.081652030
0.180251122
0.054754846
0.057930678
0.067051120
0.134982631
-0.065526858
0.037683148
-0.033620708
-0.030505475
-0.013907019
-0.013057014
0.016716257
0.135741964
-0.041201040
0.016998321
0.052352704
-0.045982696
0.011701280
-0.113947973
0.077501394
-0.020722048
0.078215472
</_></support_vectors> 
   <uncompressed_sv_total>0</uncompressed_sv_total> 
   <decision_functions> 
     <_> 
       <sv_count>1</sv_count> 
       <rho> 2.802472353
</rho>  
       <alpha>  
         1.</alpha>  
       <index>  
         0</index></_></decision_functions></opencv_ml_svm>  
 </opencv_storage>  
