<?xml version="1.0"?>
 <opencv_storage>
  <opencv_ml_svm>
   <svmType>C_SVC</svmType>
   <kernel>
     <type>LINEAR</type></kernel>
   <C>1.</C>
   <term_criteria><iterations>100</iterations></term_criteria>
   <var_count>128</var_count>
   <class_count>2</class_count>
   <class_labels type_id="opencv-matrix">
     <rows>2</rows>
     <cols>1</cols>
     <dt>i</dt>
     <data>
       -1 1</data></class_labels>
   <sv_total>1</sv_total>
   <support_vectors>
     <_>
0.362705916
0.619890630
2.117504835
1.538411617
1.533132195
1.319990873
1.293856740
0.519950509
0.097250298
0.639550388
0.672904670
-0.108668715
-0.769649744
-0.589913189
-0.307328254
0.293914467
-0.181275949
0.290624350
0.358468443
-0.654454589
-0.016982421
-0.051718462
-0.095603235
-0.309189171
-0.347785592
-0.172032744
-0.955958426
-0.411920786
-0.414539039
-1.069215298
-0.980931878
-1.338395953
-1.511553288
-1.169334292
-1.448045135
-1.639374971
-1.676703215
-1.364587069
-1.537043691
-1.246834636
-1.412429690
-2.623798847
-2.725042105
-3.755081654
-4.366324902
-3.363860130
-2.645562410
-2.599276304
-1.318833947
-0.636261463
0.325361729
0.817358077
1.467368245
1.983989716
2.431477070
2.752272606
3.146272421
3.259723663
3.810572147
3.676616430
3.461125612
3.073716879
2.649127483
1.733138442
1.363596082
0.537197649
0.285240680
-0.590873837
-1.639692545
-1.898264289
-2.313181877
-2.176628590
-2.362758160
-2.975822210
-2.753517389
-2.454960823
-2.707062006
-2.856098652
-1.956277847
-2.995669365
-1.758195400
-1.851008415
-0.905004144
-0.720118701
-1.211731553
-0.743874013
-0.606399059
-0.639027178
-1.107486606
-0.752147436
-1.420837641
-1.303093672
-0.593455195
-1.749615192
-1.226686239
-0.954304814
-0.598406672
-0.796571016
0.737561464
0.425687045
0.625942886
1.301024199
0.999889553
1.336332560
0.906446457
1.381198645
0.636577904
1.406771541
1.840753555
0.730534315
1.826612711
1.538125277
1.177695870
0.826472282
1.333394051
0.984020114
0.977813482
0.958159506
1.037845016
0.096374772
1.172388434
1.396368861
1.045055509
0.658200204
1.248555899
0.875172377
1.282726884
1.201599717
</_></support_vectors> 
   <uncompressed_sv_total>0</uncompressed_sv_total> 
   <decision_functions> 
     <_> 
       <sv_count>1</sv_count> 
       <rho> 2.007515430
</rho>  
       <alpha>  
         1.</alpha>  
       <index>  
         0</index></_></decision_functions></opencv_ml_svm>  
 </opencv_storage>  
