<?xml version="1.0"?>
 <opencv_storage>
  <opencv_ml_svm>
   <svmType>C_SVC</svmType>
   <kernel>
     <type>LINEAR</type></kernel>
   <C>1.</C>
   <term_criteria><iterations>100</iterations></term_criteria>
   <var_count>128</var_count>
   <class_count>2</class_count>
   <class_labels type_id="opencv-matrix">
     <rows>2</rows>
     <cols>1</cols>
     <dt>i</dt>
     <data>
       -1 1</data></class_labels>
   <sv_total>1</sv_total>
   <support_vectors>
     <_>
-0.094667152
-0.060875069
-0.044216476
-0.102588437
-0.075690739
-0.039840437
-0.086243652
-0.073889352
-0.078782149
-0.032587621
-0.070208132
-0.059133124
-0.058759168
-0.043947533
-0.051411387
-0.056799714
-0.057354707
-0.088643283
-0.045963019
-0.058726445
-0.076512173
-0.064798407
-0.051879980
-0.053939085
-0.066794321
-0.058353372
-0.081333689
-0.065514922
-0.057842694
-0.057579152
-0.047233313
-0.050399031
-0.041107893
-0.043208890
-0.049818385
-0.067754246
-0.076233000
-0.064913608
-0.044090889
-0.029897707
-0.019010369
-0.012025552
-0.003117444
0.030061986
0.012024467
0.014083017
0.041866567
0.046233095
0.061077673
0.054369964
0.047987126
0.043162454
0.066138417
0.080260113
0.094059780
0.071282864
0.083855726
0.067506135
0.072517037
0.079062149
0.100366324
0.089499950
0.081577219
0.078105547
0.101800643
0.095509805
0.105113998
0.104933597
0.108353458
0.135456949
0.123296961
0.104661986
0.103125542
0.115306020
0.125527143
0.117216654
0.120763518
0.116143636
0.136089250
0.122872800
0.108734444
0.094819136
0.100050651
0.108199678
0.091191873
0.116455376
0.099586725
0.122020312
0.101758920
0.097026080
0.079288192
0.090692528
0.096087761
0.057517044
0.124198630
0.130737677
0.123159997
0.077828579
0.064193279
0.046564501
0.090139195
0.129020348
0.140622362
0.067442000
0.063637264
0.067307174
0.110655174
0.031316295
0.020948380
0.058922257
0.085609473
-0.006931755
0.025394881
-0.042104416
-0.027156621
-0.000561560
0.006094592
0.062429842
0.124071568
-0.031380519
0.038062703
0.027078656
-0.021715136
0.017887540
-0.020935686
0.097777084
-0.002055306
0.074410424
</_></support_vectors> 
   <uncompressed_sv_total>0</uncompressed_sv_total> 
   <decision_functions> 
     <_> 
       <sv_count>1</sv_count> 
       <rho> 2.823290825
</rho>  
       <alpha>  
         1.</alpha>  
       <index>  
         0</index></_></decision_functions></opencv_ml_svm>  
 </opencv_storage>  
