<?xml version="1.0"?>
 <opencv_storage>
  <opencv_ml_svm>
   <svmType>C_SVC</svmType>
   <kernel>
     <type>LINEAR</type></kernel>
   <C>1.</C>
   <term_criteria><iterations>100</iterations></term_criteria>
   <var_count>128</var_count>
   <class_count>2</class_count>
   <class_labels type_id="opencv-matrix">
     <rows>2</rows>
     <cols>1</cols>
     <dt>i</dt>
     <data>
       -1 1</data></class_labels>
   <sv_total>1</sv_total>
   <support_vectors>
     <_>
-0.156773716
-0.319070965
-0.285605699
-0.293476790
-0.252970427
-0.267839700
-0.342102945
-0.177979127
-0.231226981
-0.226286262
-0.297869384
-0.204766631
-0.112865806
-0.259042948
-0.184016436
-0.106884539
-0.054259717
-0.028303763
0.000936602
-0.070576854
-0.121861912
-0.129921749
-0.181692332
-0.218183964
-0.180085078
-0.139452890
-0.211374238
-0.231675550
-0.212597340
-0.229854658
-0.188112840
-0.153037250
-0.137088984
-0.060428783
-0.121986836
-0.128936261
-0.130371183
-0.050335921
0.021130361
0.259605497
0.428393662
0.523428977
0.722203135
0.707434714
0.769256294
0.803542674
0.829342663
0.825221360
0.865332365
0.805846870
0.728681564
0.712719321
0.709077299
0.687534869
0.665585816
0.558213174
0.567589045
0.631587148
0.496696591
0.494090587
0.474708170
0.418952495
0.382979155
0.328412712
0.261031926
0.091697775
0.043036979
0.002784460
-0.175006017
-0.306530833
-0.309887886
-0.377365083
-0.498050034
-0.519117177
-0.649403214
-0.516729593
-0.589435816
-0.687341690
-0.733598351
-0.643218815
-0.594374120
-0.412480026
-0.310341984
-0.084840015
0.004200141
0.164038330
0.213964313
0.229857668
0.213470697
0.071408950
0.085027218
-0.099961810
-0.177163213
-0.192418113
-0.089891084
-0.259255081
-0.255093068
-0.330160826
-0.192317799
-0.220010087
-0.135579571
-0.120378427
-0.098295815
-0.103368148
-0.065013915
-0.063218102
-0.013084819
-0.011733743
-0.056393523
0.267827034
0.172821075
0.241747767
0.131719828
0.345254958
0.133640185
0.021238955
0.106292337
0.470750421
0.185083494
0.132818446
0.146741539
0.288221389
0.062693432
-0.025546100
0.148725197
0.083303399
0.404159158
0.140654474
</_></support_vectors> 
   <uncompressed_sv_total>0</uncompressed_sv_total> 
   <decision_functions> 
     <_> 
       <sv_count>1</sv_count> 
       <rho> 1.346874475
</rho>  
       <alpha>  
         1.</alpha>  
       <index>  
         0</index></_></decision_functions></opencv_ml_svm>  
 </opencv_storage>  
