<?xml version="1.0"?>
 <opencv_storage>
  <opencv_ml_svm>
   <svmType>C_SVC</svmType>
   <kernel>
     <type>LINEAR</type></kernel>
   <C>1.</C>
   <term_criteria><iterations>100</iterations></term_criteria>
   <var_count>128</var_count>
   <class_count>2</class_count>
   <class_labels type_id="opencv-matrix">
     <rows>2</rows>
     <cols>1</cols>
     <dt>i</dt>
     <data>
       -1 1</data></class_labels>
   <sv_total>1</sv_total>
   <support_vectors>
     <_>
0.349747390
-0.128611654
0.309157729
0.297150612
0.190032452
-0.086213820
-0.336238503
-0.045783486
0.203443944
0.098115884
-0.076713525
-0.120949328
-0.086232997
-0.139165178
-0.276614368
-0.283085734
-0.245206937
-0.312715709
-0.513016284
-0.390308529
-0.334280103
-0.336824745
-0.177791759
0.112662770
0.207474709
0.157925263
0.137068495
0.112086177
0.197817042
0.100850195
-0.072925530
0.048980460
-0.008867965
-0.089431427
-0.106578708
-0.022935910
0.037443914
-0.085619479
-0.510886431
-1.214102864
-1.962813258
-2.359700441
-2.958423138
-2.788637638
-2.375242472
-2.362300396
-2.096635580
-1.776237130
-1.378526211
-1.141071200
-0.954549551
-0.714030325
-0.567303121
-0.368676275
-0.183429018
-0.079251073
-0.014367536
0.041356064
0.199776858
0.234566644
0.224846125
0.135845900
0.173224479
0.313597411
0.149386093
0.322759151
0.346068233
0.393212795
0.498893648
0.548333108
0.425059199
0.606060982
0.496225774
0.483943760
0.572963655
0.734514236
0.612574160
0.538964927
0.431745738
0.594332755
0.520026326
0.487143099
0.232475817
0.185996771
0.227425531
0.091894478
0.184890956
0.242102325
0.006013411
-0.168758035
-0.136136696
-0.125038579
0.010463652
-0.016976131
0.057890844
0.173361614
0.051907483
-0.058788728
-0.272979915
-0.098854110
0.190235272
0.080371045
0.103744484
-0.171731934
-0.339918673
0.053838391
0.060531281
0.234558895
0.193250090
-0.355678201
-0.122502811
-0.140570834
0.345782220
0.266801238
-0.106676236
-0.365234733
0.039887700
-0.126294166
-0.239587292
-0.406552941
0.141035944
-0.216553792
-0.317574292
0.016719449
0.280535102
-0.062344417
0.032166831
0.171034038
</_></support_vectors> 
   <uncompressed_sv_total>0</uncompressed_sv_total> 
   <decision_functions> 
     <_> 
       <sv_count>1</sv_count> 
       <rho> 0.660256803
</rho>  
       <alpha>  
         1.</alpha>  
       <index>  
         0</index></_></decision_functions></opencv_ml_svm>  
 </opencv_storage>  
