<?xml version="1.0"?>
 <opencv_storage>
  <opencv_ml_svm>
   <svmType>C_SVC</svmType>
   <kernel>
     <type>LINEAR</type></kernel>
   <C>1.</C>
   <term_criteria><iterations>100</iterations></term_criteria>
   <var_count>128</var_count>
   <class_count>2</class_count>
   <class_labels type_id="opencv-matrix">
     <rows>2</rows>
     <cols>1</cols>
     <dt>i</dt>
     <data>
       -1 1</data></class_labels>
   <sv_total>1</sv_total>
   <support_vectors>
     <_>
0.105959266
0.054035570
0.061110564
0.136847258
0.092815667
0.041977998
0.077140473
0.071611807
0.082631506
0.023457477
0.081457317
0.073362455
0.066587143
0.066676185
0.062483914
0.076224275
0.071531184
0.086221375
0.059299365
0.054255612
0.071799085
0.065100446
0.058767051
0.055551797
0.062072836
0.061881356
0.086756848
0.076130979
0.053422239
0.043137293
0.037277307
0.042681325
0.047354754
0.046861403
0.041509859
0.072336286
0.084581532
0.058523055
0.056269977
0.052013204
0.053480804
0.070952639
0.055535249
0.006836177
0.022995710
0.041464116
0.024995150
0.015678219
-0.012251939
-0.000062508
0.003332949
-0.001681250
-0.013366916
-0.037042852
-0.037659999
-0.029637825
-0.045886092
-0.021993751
-0.032421116
-0.042720556
-0.077062391
-0.068978667
-0.052856676
-0.056053117
-0.078803845
-0.095399998
-0.105728798
-0.110233627
-0.129148141
-0.165517852
-0.167915687
-0.149335310
-0.150415286
-0.158558488
-0.182129651
-0.174289867
-0.189749837
-0.163132995
-0.164954841
-0.177425727
-0.155769140
-0.141637251
-0.145978972
-0.141776934
-0.091336973
-0.113039449
-0.122214332
-0.138503715
-0.123682596
-0.132016003
-0.086648263
-0.108538762
-0.120209135
-0.066374108
-0.178077936
-0.143035829
-0.148239717
-0.124621727
-0.073348582
-0.046964582
-0.097842604
-0.131662726
-0.169233412
-0.078149013
-0.079830803
-0.065750927
-0.132387668
-0.036187604
-0.023554442
-0.070682988
-0.085096315
-0.009275357
-0.004333586
0.094931267
0.032170121
0.045611098
0.000668979
0.030811472
-0.056407884
0.110364690
-0.021764038
0.049616389
0.130635694
0.050905205
0.089950815
-0.120961033
-0.057108030
-0.061780803
</_></support_vectors> 
   <uncompressed_sv_total>0</uncompressed_sv_total> 
   <decision_functions> 
     <_> 
       <sv_count>1</sv_count> 
       <rho> -2.460509300
</rho>  
       <alpha>  
         1.</alpha>  
       <index>  
         0</index></_></decision_functions></opencv_ml_svm>  
 </opencv_storage>  
