<?xml version="1.0"?>
 <opencv_storage>
  <opencv_ml_svm>
   <svmType>C_SVC</svmType>
   <kernel>
     <type>LINEAR</type></kernel>
   <C>1.</C>
   <term_criteria><iterations>100</iterations></term_criteria>
   <var_count>128</var_count>
   <class_count>2</class_count>
   <class_labels type_id="opencv-matrix">
     <rows>2</rows>
     <cols>1</cols>
     <dt>i</dt>
     <data>
       -1 1</data></class_labels>
   <sv_total>1</sv_total>
   <support_vectors>
     <_>
0.003906223
-0.177147716
-0.252458751
-0.362268478
-0.530275345
-0.553910553
-0.501930892
-0.563578486
-0.554794252
-0.541107595
-0.608117104
-0.516680419
-0.494280934
-0.461184174
-0.354783773
-0.254449427
-0.130668521
-0.106092766
0.010635593
0.119731568
0.212173104
0.407274157
0.511982024
0.579962790
0.651455402
0.729757547
0.780200303
0.778260708
0.777657926
0.845583797
0.860812426
0.913643956
0.985365748
1.029202104
1.112201452
1.229118347
1.281911373
1.321504116
1.305581212
1.214166522
1.150073767
1.112702847
1.076011062
1.027352929
0.938227713
0.771659315
0.660997391
0.555978775
0.516654134
0.423130691
0.359788895
0.313122958
0.304931849
0.297424912
0.272988945
0.215269446
0.147240773
0.179863632
0.211127698
0.169030562
0.142577142
0.095779605
0.113957927
0.052811179
0.043813944
0.074429728
-0.106728651
-0.126596108
-0.064681292
-0.159643367
-0.139409125
-0.128615454
-0.159783512
-0.159545377
-0.147540867
-0.188625678
-0.133976042
-0.177276984
-0.221381471
-0.156838879
-0.170259386
-0.133621767
-0.114013255
-0.153108686
-0.177735567
-0.223797694
-0.169243619
-0.273712486
-0.241240069
-0.221265405
-0.268980771
-0.192457065
-0.274404854
-0.205738455
-0.312441826
-0.334139258
-0.334125280
-0.293023437
-0.150166705
-0.179712355
-0.153518826
-0.165912807
-0.226761207
-0.136243120
-0.057065699
-0.020940775
-0.044310473
0.003585256
-0.076900907
0.018368378
-0.068192728
-0.056800876
-0.005548604
-0.150755480
0.071653254
0.119671240
-0.025349369
0.013033512
-0.217645124
0.011714436
0.058805648
-0.060928848
-0.053321119
-0.042243436
-0.003092314
0.201849908
-0.077665083
-0.205378935
</_></support_vectors> 
   <uncompressed_sv_total>0</uncompressed_sv_total> 
   <decision_functions> 
     <_> 
       <sv_count>1</sv_count> 
       <rho> 1.483191729
</rho>  
       <alpha>  
         1.</alpha>  
       <index>  
         0</index></_></decision_functions></opencv_ml_svm>  
 </opencv_storage>  
