<?xml version="1.0"?>
 <opencv_storage>
  <opencv_ml_svm>
   <svmType>C_SVC</svmType>
   <kernel>
     <type>LINEAR</type></kernel>
   <C>1.</C>
   <term_criteria><iterations>100</iterations></term_criteria>
   <var_count>128</var_count>
   <class_count>2</class_count>
   <class_labels type_id="opencv-matrix">
     <rows>2</rows>
     <cols>1</cols>
     <dt>i</dt>
     <data>
       -1 1</data></class_labels>
   <sv_total>1</sv_total>
   <support_vectors>
     <_>
-0.021461945
-0.040193446
-0.030637104
-0.071723089
-0.015061245
-0.064891823
-0.049517319
-0.031829916
0.001480760
-0.005390484
-0.040773381
-0.025997471
-0.004179776
-0.001867599
-0.012029601
0.001399505
0.003955231
0.006807633
-0.016080733
0.002133199
-0.014440679
-0.006533746
-0.016106475
0.005101963
-0.033886574
-0.036495522
-0.040709455
-0.058589380
-0.044574209
-0.047834553
-0.058795903
-0.083050996
-0.082959160
-0.070844173
-0.090175658
-0.103314839
-0.082632847
-0.102012053
-0.098728999
-0.103398591
-0.117467865
-0.107085645
-0.095094524
-0.075811557
-0.050168857
-0.015487099
-0.009188677
0.011524897
0.033714544
0.065533355
0.061439272
0.052896358
0.066443913
0.106791645
0.100029461
0.093264394
0.084708229
0.092581742
0.073486537
0.078936398
0.102477066
0.107771724
0.118900977
0.115055740
0.131321803
0.143491372
0.162750930
0.180231661
0.157159671
0.159820974
0.185314342
0.168252096
0.173363775
0.208348021
0.181096599
0.182653666
0.196389690
0.224864051
0.215414301
0.177818954
0.160981327
0.167372704
0.139568403
0.124207191
0.106866159
0.102057241
0.088508315
0.101276286
0.107094549
0.088995166
0.131194800
0.119368114
0.127901241
0.111836664
0.170443669
0.152035967
0.150280058
0.147188604
0.162122101
0.206950262
0.161901131
0.159540564
0.144762740
0.149560675
0.085180521
0.091502272
0.116246119
0.120291054
0.046823855
0.040156819
0.053117432
0.094340853
0.029916545
0.055346224
0.043733738
0.083670750
0.106855378
-0.007082167
-0.030836491
-0.044809688
-0.017385164
-0.026788266
0.060836345
-0.016643319
0.019355759
0.050902274
-0.026032871
-0.003040225
</_></support_vectors> 
   <uncompressed_sv_total>0</uncompressed_sv_total> 
   <decision_functions> 
     <_> 
       <sv_count>1</sv_count> 
       <rho> 5.717833996
</rho>  
       <alpha>  
         1.</alpha>  
       <index>  
         0</index></_></decision_functions></opencv_ml_svm>  
 </opencv_storage>  
