<?xml version="1.0"?>
 <opencv_storage>
  <opencv_ml_svm>
   <svmType>C_SVC</svmType>
   <kernel>
     <type>LINEAR</type></kernel>
   <C>1.</C>
   <term_criteria><iterations>100</iterations></term_criteria>
   <var_count>128</var_count>
   <class_count>2</class_count>
   <class_labels type_id="opencv-matrix">
     <rows>2</rows>
     <cols>1</cols>
     <dt>i</dt>
     <data>
       -1 1</data></class_labels>
   <sv_total>1</sv_total>
   <support_vectors>
     <_>
0.142015785
0.126412407
0.079080984
0.127221838
-0.007363060
0.061174944
0.042973079
0.029268907
-0.021912284
-0.040143322
0.024953004
-0.006554808
-0.061161716
-0.092580602
-0.057670753
-0.071110584
-0.101235799
-0.122939080
-0.075156331
-0.121842928
-0.060860086
-0.081118025
-0.054793525
-0.075188674
0.009095656
0.003138715
0.022019947
0.039555464
0.033617832
0.033693485
0.031114910
0.068658456
0.058633562
0.067784272
0.085211255
0.106660984
0.093403496
0.109110311
0.096564047
0.055210225
0.006942952
-0.034465164
-0.074831955
-0.114107959
-0.158324718
-0.195875987
-0.193315580
-0.206359982
-0.233480290
-0.265820682
-0.250979334
-0.228843808
-0.235658154
-0.275316924
-0.259756893
-0.254319876
-0.238633081
-0.238940179
-0.199402124
-0.194721431
-0.229216948
-0.244160816
-0.233967051
-0.194654256
-0.233146504
-0.224527150
-0.250793934
-0.253619373
-0.207354814
-0.207081854
-0.210995078
-0.201728418
-0.198412329
-0.227537006
-0.188851833
-0.184181228
-0.173328459
-0.222586721
-0.216085538
-0.184047788
-0.131242752
-0.160089582
-0.144460037
-0.124828137
-0.109461680
-0.104395188
-0.049006835
-0.109240614
-0.084511407
-0.052950781
-0.083609201
-0.068040855
-0.026232228
-0.037735756
-0.129422173
-0.072155863
-0.021879833
-0.042034157
-0.090153337
-0.149757877
-0.046926677
-0.067678452
-0.062774435
-0.077949151
0.001072298
0.021799155
-0.026360841
-0.077045217
0.086353742
0.106534556
0.033639494
-0.025357548
0.016985627
0.042009391
0.111454934
0.012327504
-0.063501664
0.086156562
0.140864044
0.130178586
0.059773915
0.132369041
0.049033772
0.138507411
-0.064505614
-0.115146607
0.221433237
0.121125847
</_></support_vectors> 
   <uncompressed_sv_total>0</uncompressed_sv_total> 
   <decision_functions> 
     <_> 
       <sv_count>1</sv_count> 
       <rho> -4.361962318
</rho>  
       <alpha>  
         1.</alpha>  
       <index>  
         0</index></_></decision_functions></opencv_ml_svm>  
 </opencv_storage>  
