<?xml version="1.0"?>
 <opencv_storage>
  <opencv_ml_svm>
   <svmType>C_SVC</svmType>
   <kernel>
     <type>LINEAR</type></kernel>
   <C>1.</C>
   <term_criteria><iterations>100</iterations></term_criteria>
   <var_count>128</var_count>
   <class_count>2</class_count>
   <class_labels type_id="opencv-matrix">
     <rows>2</rows>
     <cols>1</cols>
     <dt>i</dt>
     <data>
       -1 1</data></class_labels>
   <sv_total>1</sv_total>
   <support_vectors>
     <_>
0.007569390
0.014756362
0.001420496
0.034749378
0.030477872
0.001610843
-0.022334738
0.007435976
-0.020297019
-0.045856703
-0.020986184
-0.053441849
-0.087349050
-0.097413644
-0.124327876
-0.145271987
-0.179249793
-0.202779576
-0.234220043
-0.260782957
-0.288263470
-0.308912635
-0.338335156
-0.317841858
-0.309340447
-0.325502485
-0.339523226
-0.320254952
-0.344928175
-0.390935689
-0.413323730
-0.429720700
-0.465240598
-0.456328154
-0.469260365
-0.474236757
-0.463930309
-0.506296456
-0.547779500
-0.606290221
-0.641900539
-0.641625762
-0.584275663
-0.511378646
-0.430281758
-0.357466936
-0.304738969
-0.272558182
-0.247601613
-0.228159338
-0.210280001
-0.203883886
-0.203493118
-0.180292159
-0.169961795
-0.159013227
-0.157645106
-0.149992839
-0.160210490
-0.138557822
-0.141492054
-0.123556428
-0.093094535
-0.074572541
-0.077401608
-0.100964509
-0.040663850
-0.017858373
-0.022654722
-0.025964748
-0.011334487
-0.001172318
-0.006170033
-0.023488723
0.015097915
0.033012532
0.020899355
0.028863976
0.043696899
0.048834518
0.027255006
0.029066699
0.075324945
0.035521477
0.027587812
0.045615807
0.010779178
0.022480987
0.006335964
0.039995603
0.071269117
0.027544905
0.079446346
0.039886307
0.086373419
0.119185165
0.104393110
0.103145905
0.093169138
0.125352219
0.084288113
0.061723214
0.087556764
0.140365601
0.100839801
0.121234670
0.108147949
0.098641984
0.122492008
0.121775635
0.060523450
0.082651839
0.116194457
0.185528144
0.077961974
0.056947608
0.060225744
0.007188968
0.197867692
0.073826782
0.034183964
0.114054546
0.001684833
0.108384632
0.036380652
0.036242310
0.106223777
0.114250816
</_></support_vectors> 
   <uncompressed_sv_total>0</uncompressed_sv_total> 
   <decision_functions> 
     <_> 
       <sv_count>1</sv_count> 
       <rho> -1.306546450
</rho>  
       <alpha>  
         1.</alpha>  
       <index>  
         0</index></_></decision_functions></opencv_ml_svm>  
 </opencv_storage>  
