<?xml version="1.0"?>
 <opencv_storage>
  <opencv_ml_svm>
   <svmType>C_SVC</svmType>
   <kernel>
     <type>LINEAR</type></kernel>
   <C>1.</C>
   <term_criteria><iterations>100</iterations></term_criteria>
   <var_count>128</var_count>
   <class_count>2</class_count>
   <class_labels type_id="opencv-matrix">
     <rows>2</rows>
     <cols>1</cols>
     <dt>i</dt>
     <data>
       -1 1</data></class_labels>
   <sv_total>1</sv_total>
   <support_vectors>
     <_>
-1.806816459
-1.636389017
-1.366931558
-1.491339922
-1.636415601
-1.486615419
-1.371169567
-1.380807996
-1.283697009
-1.011484265
-0.697266400
-0.790414155
-0.971309423
-0.995599151
-1.048517108
-1.024080515
-0.987355709
-1.116691589
-0.978626072
-0.922901392
-0.858303428
-0.406930536
-0.155273214
0.255602062
0.638479948
0.755784869
1.004397631
0.994838059
0.923900366
0.879361928
0.603032768
0.522148132
0.445472538
0.572174668
0.612249792
0.682514906
0.845523000
0.567333877
-0.247458115
-1.455868125
-2.826458693
-3.659532309
-3.683123589
-3.167230844
-2.717753649
-2.097507000
-1.693510294
-1.096019626
-0.847104669
-0.678699911
-0.713023543
-0.604459047
-0.537997663
-0.323561281
-0.496139765
-0.710511029
-0.652201355
-0.773527086
-0.813114345
-0.977680206
-0.854128182
-0.936040998
-0.759963095
-0.610020757
-0.517155886
-0.510284603
-0.245581105
-0.335488558
-0.180335164
-0.149335697
0.052549206
-0.153896332
-0.228057325
0.125008836
0.157068178
0.176709726
0.507821143
0.445236534
-0.077818871
0.119492367
0.162425280
0.257029116
0.038826901
-0.256613612
-0.370071352
-0.756130815
-0.447986782
-0.733457029
-0.478696674
-0.312356591
-0.193301871
0.219990119
0.364110529
0.379672348
0.666607499
0.214436591
0.671169579
0.539489448
0.829233348
1.047124982
0.995749772
0.599222898
0.805825353
1.037077904
1.236365557
1.309545994
1.461824059
1.508865356
0.995599687
0.954514325
1.300091028
1.342760444
1.055796385
1.394713044
1.728704572
0.939137697
1.263802171
1.766667008
2.399877310
2.006591797
1.713761449
1.770342469
2.049837351
1.337628484
1.434818029
2.096238852
2.283427715
2.630513191
</_></support_vectors> 
   <uncompressed_sv_total>0</uncompressed_sv_total> 
   <decision_functions> 
     <_> 
       <sv_count>1</sv_count> 
       <rho> 26.133951187
</rho>  
       <alpha>  
         1.</alpha>  
       <index>  
         0</index></_></decision_functions></opencv_ml_svm>  
 </opencv_storage>  
