<?xml version="1.0"?>
 <opencv_storage>
  <opencv_ml_svm>
   <svmType>C_SVC</svmType>
   <kernel>
     <type>LINEAR</type></kernel>
   <C>1.</C>
   <term_criteria><iterations>100</iterations></term_criteria>
   <var_count>128</var_count>
   <class_count>2</class_count>
   <class_labels type_id="opencv-matrix">
     <rows>2</rows>
     <cols>1</cols>
     <dt>i</dt>
     <data>
       -1 1</data></class_labels>
   <sv_total>1</sv_total>
   <support_vectors>
     <_>
-0.017404987
-0.031049849
-0.017435426
-0.042905353
0.006913151
-0.016429530
-0.012803183
0.003818204
0.030013120
0.026474195
0.012879055
0.024232872
0.047974549
0.047955103
0.050499361
0.060640331
0.066018991
0.079023391
0.071081392
0.080992967
0.075713217
0.083337128
0.078418881
0.089678876
0.069311745
0.068742722
0.062401116
0.056226935
0.066057242
0.064083353
0.067177474
0.054619912
0.057641897
0.065002203
0.055056423
0.053822625
0.067554861
0.064332865
0.070882216
0.076097988
0.080777280
0.092955105
0.101956353
0.112277031
0.121764876
0.128563076
0.122728005
0.129774734
0.135861561
0.146515578
0.135723174
0.129473552
0.132392645
0.146938384
0.143412262
0.130975008
0.124165885
0.128293678
0.116106078
0.112922356
0.123798497
0.131440103
0.129153162
0.119389534
0.123929590
0.117645621
0.124151029
0.134977847
0.111610658
0.110342219
0.114428475
0.103838958
0.098798424
0.115954041
0.102027521
0.097446732
0.096469693
0.117238410
0.110778727
0.096646428
0.081604719
0.100743838
0.080105074
0.074574538
0.073162384
0.069863297
0.053219929
0.063464671
0.068153404
0.044103082
0.073755734
0.063684605
0.069158278
0.042542145
0.081241369
0.073290251
0.060497530
0.057730518
0.064906426
0.087500870
0.055930000
0.068005845
0.063405700
0.059241243
0.026862906
0.040866088
0.055072635
0.052244034
0.011725266
0.019510392
0.014053779
0.035634529
0.000756333
0.004144217
0.013945079
0.033044994
0.057514507
-0.011004852
-0.024937214
-0.053325783
-0.004178550
-0.007446253
0.026181275
-0.008264885
0.017330995
0.042198084
0.005926810
-0.013121372
</_></support_vectors> 
   <uncompressed_sv_total>0</uncompressed_sv_total> 
   <decision_functions> 
     <_> 
       <sv_count>1</sv_count> 
       <rho> 4.363437653
</rho>  
       <alpha>  
         1.</alpha>  
       <index>  
         0</index></_></decision_functions></opencv_ml_svm>  
 </opencv_storage>  
